{"learner":{"attributes":{"scikit_learn":"{\"_estimator_type\": \"regressor\"}"},"feature_names":["Item_Weight","Item_Visibility","Item_MRP","Outlet_Establishment_Year","Outlet_Size","Outlet_Location_Type","Outlet_Type","Item_Fat_Content"],"feature_types":["float","float","float","int","int","int","int","int"],"gradient_booster":{"model":{"gbtree_model_param":{"num_parallel_tree":"1","num_trees":"300"},"iteration_indptr":[0,1,2,3,4,5,6,7,8,9,10,11,12,13,14,15,16,17,18,19,20,21,22,23,24,25,26,27,28,29,30,31,32,33,34,35,36,37,38,39,40,41,42,43,44,45,46,47,48,49,50,51,52,53,54,55,56,57,58,59,60,61,62,63,64,65,66,67,68,69,70,71,72,73,74,75,76,77,78,79,80,81,82,83,84,85,86,87,88,89,90,91,92,93,94,95,96,97,98,99,100,101,102,103,104,105,106,107,108,109,110,111,112,113,114,115,116,117,118,119,120,121,122,123,124,125,126,127,128,129,130,131,132,133,134,135,136,137,138,139,140,141,142,143,144,145,146,147,148,149,150,151,152,153,154,155,156,157,158,159,160,161,162,163,164,165,166,167,168,169,170,171,172,173,174,175,176,177,178,179,180,181,182,183,184,185,186,187,188,189,190,191,192,193,194,195,196,197,198,199,200,201,202,203,204,205,206,207,208,209,210,211,212,213,214,215,216,217,218,219,220,221,222,223,224,225,226,227,228,229,230,231,232,233,234,235,236,237,238,239,240,241,242,243,244,245,246,247,248,249,250,251,252,253,254,255,256,257,258,259,260,261,262,263,264,265,266,267,268,269,270,271,272,273,274,275,276,277,278,279,280,281,282,283,284,285,286,287,288,289,290,291,292,293,294,295,296,297,298,299,300],"tree_info":[0,0,0,0,0,0,0,0,0,0,0,0,0,0,0,0,0,0,0,0,0,0,0,0,0,0,0,0,0,0,0,0,0,0,0,0,0,0,0,0,0,0,0,0,0,0,0,0,0,0,0,0,0,0,0,0,0,0,0,0,0,0,0,0,0,0,0,0,0,0,0,0,0,0,0,0,0,0,0,0,0,0,0,0,0,0,0,0,0,0,0,0,0,0,0,0,0,0,0,0,0,0,0,0,0,0,0,0,0,0,0,0,0,0,0,0,0,0,0,0,0,0,0,0,0,0,0,0,0,0,0,0,0,0,0,0,0,0,0,0,0,0,0,0,0,0,0,0,0,0,0,0,0,0,0,0,0,0,0,0,0,0,0,0,0,0,0,0,0,0,0,0,0,0,0,0,0,0,0,0,0,0,0,0,0,0,0,0,0,0,0,0,0,0,0,0,0,0,0,0,0,0,0,0,0,0,0,0,0,0,0,0,0,0,0,0,0,0,0,0,0,0,0,0,0,0,0,0,0,0,0,0,0,0,0,0,0,0,0,0,0,0,0,0,0,0,0,0,0,0,0,0,0,0,0,0,0,0,0,0,0,0,0,0,0,0,0,0,0,0,0,0,0,0,0,0,0,0,0,0,0,0,0,0,0,0,0,0,0,0,0,0,0,0,0,0,0,0,0,0],"trees":[{"base_weights":[1.824581E0,-7.316135E2,9.418688E2,-9.693906E1,-5.572068E2,-8.417797E1,1.3224252E3,-1.2660217E3,-2.1019708E2,3.0069634E3,1.076016E3,-6.759694E2,-1.3532949E3,8.247669E2,-3.4432358E2,2.3386182E3,3.8072937E3,6.9496844E2,1.674668E3,-5.4690804E1,-9.184617E0,-7.3539276E1,-5.4234913E1,2.527542E1,6.99749E1,-3.231567E1,-4.1675677E0,1.0021438E2,1.289594E2,2.5417712E2,1.801405E2,1.5921668E1,4.2169353E1,8.857062E1,5.582604E1],"categories":[],"categories_nodes":[],"categories_segments":[],"categories_sizes":[],"default_left":[0,0,0,0,0,0,0,0,0,0,0,0,0,0,0,0,0,0,0,0,0,0,0,0,0,0,0,0,0,0,0,0,0,0,0],"id":0,"left_children":[1,3,5,-1,7,-1,9,11,13,15,17,19,21,23,25,27,29,31,33,-1,-1,-1,-1,-1,-1,-1,-1,-1,-1,-1,-1,-1,-1,-1,-1],"loss_changes":[3.747238E9,6.416915E8,2.3821384E9,0E0,6.562155E8,0E0,8.60556E8,4.4246016E7,2.4918101E8,1.328407E8,4.1331968E8,2.3453504E7,2.248192E7,3.7090064E7,1.2509757E8,6.651456E6,1.2736384E7,6.187475E7,3.6142976E7,0E0,0E0,0E0,0E0,0E0,0E0,0E0,0E0,0E0,0E0,0E0,0E0,0E0,0E0,0E0,0E0],"parents":[2147483647,0,0,1,1,2,2,4,4,6,6,7,7,8,8,9,9,10,10,11,11,12,12,13,13,14,14,15,15,16,16,17,17,18,18],"right_children":[2,4,6,-1,8,-1,10,12,14,16,18,20,22,24,26,28,30,32,34,-1,-1,-1,-1,-1,-1,-1,-1,-1,-1,-1,-1,-1,-1,-1,-1],"split_conditions":[1.526998E2,1E0,1E0,-9.693906E1,8.0996E1,-8.417797E1,1.987E3,1.987E3,1.987E3,1.960794E2,2.061638E2,5.20324E1,5.87904E1,1.219072E2,1.126176E2,1.725106E2,1.5663184E-2,1.659526E2,2.009E3,-5.4690804E1,-9.184617E0,-7.3539276E1,-5.4234913E1,2.527542E1,6.99749E1,-3.231567E1,-4.1675677E0,1.0021438E2,1.289594E2,2.5417712E2,1.801405E2,1.5921668E1,4.2169353E1,8.857062E1,5.582604E1],"split_indices":[2,6,6,0,2,0,3,3,3,2,2,2,2,2,2,2,1,2,3,0,0,0,0,0,0,0,0,0,0,0,0,0,0,0,0],"split_type":[0,0,0,0,0,0,0,0,0,0,0,0,0,0,0,0,0,0,0,0,0,0,0,0,0,0,0,0,0,0,0,0,0,0,0],"sum_hessian":[5.433E3,3.052E3,2.381E3,3.84E2,2.668E3,3.01E2,2.08E3,8.76E2,1.792E3,2.64E2,1.816E3,1.14E2,7.62E2,2.05E2,1.587E3,1.46E2,1.18E2,1.111E3,7.05E2,6.1E1,5.3E1,5.27E2,2.35E2,1.33E2,7.2E1,7.35E2,8.52E2,6.5E1,8.1E1,1.3E1,1.05E2,3.15E2,7.96E2,5.99E2,1.06E2],"tree_param":{"num_deleted":"0","num_feature":"8","num_nodes":"35","size_leaf_vector":"1"}},{"base_weights":[-7.258405E0,-7.997635E2,7.8612164E2,-9.314971E1,-6.3630066E2,-8.048622E1,1.1329429E3,-1.2513243E3,-3.3535083E2,2.539136E3,9.320925E2,-6.993596E2,-1.325349E3,5.8963684E2,-4.545935E2,1.8903789E3,3.4542312E3,5.736131E2,1.6109125E3,-5.074224E1,-1.5078345E1,-7.2596214E1,-5.792456E1,1.987732E1,4.2032715E1,-3.2826637E1,-9.715663E0,7.644774E1,1.1524849E2,1.4695517E2,1.9303671E2,1.8895319E1,4.7975597E1,6.279961E1,8.990901E1],"categories":[],"categories_nodes":[],"categories_segments":[],"categories_sizes":[],"default_left":[0,0,0,0,0,0,0,0,0,0,0,0,0,0,0,0,0,0,0,0,0,0,0,0,0,0,0,0,0,0,0,0,0,0,0],"id":1,"left_children":[1,3,5,-1,7,-1,9,11,13,15,17,19,21,23,25,27,29,31,33,-1,-1,-1,-1,-1,-1,-1,-1,-1,-1,-1,-1,-1,-1,-1,-1],"loss_changes":[3.4286157E9,4.7293632E8,2.2661084E9,0E0,4.3750554E8,0E0,6.701074E8,3.0819584E7,1.7564178E8,1.6978893E8,5.064452E8,1.149008E7,1.2762752E7,8.440868E6,7.393014E7,2.2846272E7,1.419648E7,1.0280118E8,4.559475E7,0E0,0E0,0E0,0E0,0E0,0E0,0E0,0E0,0E0,0E0,0E0,0E0,0E0,0E0,0E0,0E0],"parents":[2147483647,0,0,1,1,2,2,4,4,6,6,7,7,8,8,9,9,10,10,11,11,12,12,13,13,14,14,15,15,16,16,17,17,18,18],"right_children":[2,4,6,-1,8,-1,10,12,14,16,18,20,22,24,26,28,30,32,34,-1,-1,-1,-1,-1,-1,-1,-1,-1,-1,-1,-1,-1,-1,-1,-1],"split_conditions":[1.43447E2,1E0,1E0,-9.314971E1,7.6467E1,-8.048622E1,1.987E3,1.987E3,1.987E3,1.907188E2,2.061638E2,5.20324E1,5.09666E1,1.092228E2,1.11586E2,1.713448E2,2.26172E2,1.805976E2,2.284352E2,-5.074224E1,-1.5078345E1,-7.2596214E1,-5.792456E1,1.987732E1,4.2032715E1,-3.2826637E1,-9.715663E0,7.644774E1,1.1524849E2,1.4695517E2,1.9303671E2,1.8895319E1,4.7975597E1,6.279961E1,8.990901E1],"split_indices":[2,6,6,0,2,0,3,3,3,2,2,2,2,2,2,2,2,2,2,0,0,0,0,0,0,0,0,0,0,0,0,0,0,0,0],"split_type":[0,0,0,0,0,0,0,0,0,0,0,0,0,0,0,0,0,0,0,0,0,0,0,0,0,0,0,0,0,0,0,0,0,0,0],"sum_hessian":[5.451E3,2.727E3,2.724E3,3.62E2,2.365E3,3.44E2,2.38E3,7.76E2,1.589E3,2.96E2,2.084E3,9.3E1,6.83E2,1.81E2,1.408E3,1.75E2,1.21E2,1.365E3,7.19E2,5.1E1,4.2E1,3.84E2,2.99E2,1.04E2,7.7E1,7.92E2,6.16E2,9.6E1,7.9E1,5.7E1,6.4E1,9.07E2,4.58E2,2.51E2,4.68E2],"tree_param":{"num_deleted":"0","num_feature":"8","num_nodes":"35","size_leaf_vector":"1"}},{"base_weights":[4.460324E0,-7.337851E2,7.5887823E2,-8.8135826E1,-5.8410486E2,-7.742753E1,1.0828867E3,-1.181667E3,-2.8811725E2,2.5439775E3,8.7070184E2,-7.017308E2,-1.2616823E3,6.8858813E2,-4.1626645E2,1.8307697E3,3.4324204E3,5.298148E2,1.5117429E3,-4.7952694E1,-1.0380698E1,-6.656436E1,-5.2146393E1,2.2650434E1,4.7423077E1,-3.0913431E1,-9.447869E0,7.2453445E1,1.0689089E2,1.9460332E2,1.4416124E2,1.3735671E1,3.693787E1,7.99784E1,4.673986E1],"categories":[],"categories_nodes":[],"categories_segments":[],"categories_sizes":[],"default_left":[0,0,0,0,0,0,0,0,0,0,0,0,0,0,0,0,0,0,0,0,0,0,0,0,0,0,0,0,0,0,0,0,0,0,0],"id":2,"left_children":[1,3,5,-1,7,-1,9,11,13,15,17,19,21,23,25,27,29,31,33,-1,-1,-1,-1,-1,-1,-1,-1,-1,-1,-1,-1,-1,-1,-1,-1],"loss_changes":[3.0325686E9,4.2280666E8,2.0150349E9,0E0,4.2485664E8,0E0,7.300536E8,2.9681792E7,2.016754E8,1.83173E8,4.5022874E8,1.4549436E7,8.979456E6,1.1017936E7,6.5222544E7,1.659008E7,2.2096384E7,7.170029E7,3.478336E7,0E0,0E0,0E0,0E0,0E0,0E0,0E0,0E0,0E0,0E0,0E0,0E0,0E0,0E0,0E0,0E0],"parents":[2147483647,0,0,1,1,2,2,4,4,6,6,7,7,8,8,9,9,10,10,11,11,12,12,13,13,14,14,15,15,16,16,17,17,18,18],"right_children":[2,4,6,-1,8,-1,10,12,14,16,18,20,22,24,26,28,30,32,34,-1,-1,-1,-1,-1,-1,-1,-1,-1,-1,-1,-1,-1,-1,-1,-1],"split_conditions":[1.43447E2,1E0,1E0,-8.8135826E1,7.6467E1,-7.742753E1,1.987E3,1.987E3,1.987E3,1.907188E2,2.061638E2,5.38614E1,5.87904E1,1.085912E2,1.098228E2,1.65121E2,5.669573E-2,1.697448E2,2.009E3,-4.7952694E1,-1.0380698E1,-6.656436E1,-5.2146393E1,2.2650434E1,4.7423077E1,-3.0913431E1,-9.447869E0,7.2453445E1,1.0689089E2,1.9460332E2,1.4416124E2,1.3735671E1,3.693787E1,7.99784E1,4.673986E1],"split_indices":[2,6,6,0,2,0,3,3,3,2,2,2,2,2,2,2,1,2,3,0,0,0,0,0,0,0,0,0,0,0,0,0,0,0,0],"split_type":[0,0,0,0,0,0,0,0,0,0,0,0,0,0,0,0,0,0,0,0,0,0,0,0,0,0,0,0,0,0,0,0,0,0,0],"sum_hessian":[5.443E3,2.751E3,2.692E3,3.48E2,2.403E3,3.31E2,2.361E3,7.95E2,1.608E3,2.98E2,2.063E3,1.15E2,6.8E2,1.86E2,1.422E3,1.67E2,1.31E2,1.348E3,7.15E2,7.5E1,4E1,5.12E2,1.68E2,9.9E1,8.7E1,7.52E2,6.7E2,7.7E1,9E1,6.8E1,6.3E1,6.08E2,7.4E2,6.19E2,9.6E1],"tree_param":{"num_deleted":"0","num_feature":"8","num_nodes":"35","size_leaf_vector":"1"}},{"base_weights":[7.4529976E-2,-7.0416205E2,6.9815625E2,-1.0999382E3,-3.5621188E2,4.0219092E2,1.2919149E3,-1.2429209E3,-8.0239105E2,-1.1204631E2,-5.539034E2,8.011222E2,1.1144087E2,1.8904668E3,8.194339E2,-1.3308151E3,-1.1044302E3,-6.100516E2,-9.4508386E2,7.0348346E2,-3.4345605E2,-4.192562E2,-8.131822E1,1.9020629E3,4.4655145E2,-6.3265894E2,6.2668365E2,3.4264907E3,1.3973777E3,-1.3718718E2,1.4904795E3,-6.214208E1,-6.9609E1,-4.9259205E1,-5.9118885E1,1.4715813E1,-4.4371517E1,-6.1008606E1,-3.5265747E1,2.5998205E1,5.1396564E1,-2.49165E1,-4.7583594E0,-7.899458E1,-1.2559209E1,7.259843E1,1.1546712E2,5.9807167E0,3.5436874E1,-7.54047E1,-1.4525268E1,1.9521053E1,4.0246822E1,1.3563713E2,1.8384026E2,5.6407562E1,8.2121056E1,-6.914934E1,1.5402252E1,7.557143E1,1.0425156E1],"categories":[],"categories_nodes":[],"categories_segments":[],"categories_sizes":[],"default_left":[0,0,0,0,0,0,0,0,0,0,0,0,0,0,0,0,0,0,0,0,0,0,0,0,0,0,0,0,0,0,0,0,0,0,0,0,0,0,0,0,0,0,0,0,0,0,0,0,0,0,0,0,0,0,0,0,0,0,0,0,0],"id":3,"left_children":[1,3,5,7,9,11,13,15,17,19,21,23,25,27,29,31,33,35,37,39,41,43,-1,45,47,49,51,53,55,57,59,-1,-1,-1,-1,-1,-1,-1,-1,-1,-1,-1,-1,-1,-1,-1,-1,-1,-1,-1,-1,-1,-1,-1,-1,-1,-1,-1,-1,-1,-1],"loss_changes":[2.688149E9,3.7445504E8,4.8203955E8,5.316032E7,6.992832E7,2.1263466E8,2.5665011E8,8.973056E6,1.0839968E7,1.2291044E8,1.1498459E8,3.0089875E8,4.0755885E8,2.996828E8,3.288766E8,1.075648E6,1.985056E6,4.541491E7,1.47704E7,8.038848E6,1.944818E7,1.386874E8,0E0,3.1108096E7,5.014577E7,1.2985795E8,2.6132992E7,7.352704E6,1.8333184E7,1.1801662E8,7.76768E6,0E0,0E0,0E0,0E0,0E0,0E0,0E0,0E0,0E0,0E0,0E0,0E0,0E0,0E0,0E0,0E0,0E0,0E0,0E0,0E0,0E0,0E0,0E0,0E0,0E0,0E0,0E0,0E0,0E0,0E0],"parents":[2147483647,0,0,1,1,2,2,3,3,4,4,5,5,6,6,7,7,8,8,9,9,10,10,11,11,12,12,13,13,14,14,15,15,16,16,17,17,18,18,19,19,20,20,21,21,23,23,24,24,25,25,26,26,27,27,28,28,29,29,30,30],"right_children":[2,4,6,8,10,12,14,16,18,20,22,24,26,28,30,32,34,36,38,40,42,44,-1,46,48,50,52,54,56,58,60,-1,-1,-1,-1,-1,-1,-1,-1,-1,-1,-1,-1,-1,-1,-1,-1,-1,-1,-1,-1,-1,-1,-1,-1,-1,-1,-1,-1,-1,-1],"split_conditions":[1.43447E2,9.12146E1,2.085638E2,6.66142E1,2E0,2E0,2E0,5.09666E1,2E0,1.987E3,2E0,1.987E3,1.999E3,1.987E3,1.999E3,2E0,2E0,1.987E3,1.999E3,1.20444E2,1.186098E2,1.987E3,-8.131822E1,1.713448E2,1.697448E2,1.987E3,1.678474E2,2.26172E2,2.356906E2,1.987E3,2.075E1,-6.214208E1,-6.9609E1,-4.9259205E1,-5.9118885E1,1.4715813E1,-4.4371517E1,-6.1008606E1,-3.5265747E1,2.5998205E1,5.1396564E1,-2.49165E1,-4.7583594E0,-7.899458E1,-1.2559209E1,7.259843E1,1.1546712E2,5.9807167E0,3.5436874E1,-7.54047E1,-1.4525268E1,1.9521053E1,4.0246822E1,1.3563713E2,1.8384026E2,5.6407562E1,8.2121056E1,-6.914934E1,1.5402252E1,7.557143E1,1.0425156E1],"split_indices":[2,2,2,2,4,4,4,2,4,3,5,3,3,3,3,4,4,3,3,2,2,3,0,2,2,3,2,2,2,3,0,0,0,0,0,0,0,0,0,0,0,0,0,0,0,0,0,0,0,0,0,0,0,0,0,0,0,0,0,0,0],"split_type":[0,0,0,0,0,0,0,0,0,0,0,0,0,0,0,0,0,0,0,0,0,0,0,0,0,0,0,0,0,0,0,0,0,0,0,0,0,0,0,0,0,0,0,0,0,0,0,0,0,0,0,0,0,0,0,0,0,0,0,0,0],"sum_hessian":[5.466E3,2.721E3,2.745E3,1.272E3,1.449E3,1.833E3,9.12E2,8.57E2,4.15E2,6.49E2,8E2,7.72E2,1.061E3,4.01E2,5.11E2,5.19E2,3.38E2,1.79E2,2.36E2,1.43E2,5.06E2,7.12E2,8.8E1,1.87E2,5.85E2,4.34E2,6.27E2,9.6E1,3.05E2,2.11E2,3E2,2.22E2,2.97E2,1.39E2,1.99E2,4.2E1,1.37E2,1.08E2,1.28E2,9.3E1,5E1,3.11E2,1.95E2,8.9E1,6.23E2,9.1E1,9.6E1,2.61E2,3.24E2,1.21E2,3.13E2,2.71E2,3.56E2,2.8E1,6.8E1,1.48E2,1.57E2,5.5E1,1.56E2,2.95E2,5E0],"tree_param":{"num_deleted":"0","num_feature":"8","num_nodes":"61","size_leaf_vector":"1"}},{"base_weights":[-2.32045E0,-4.819032E2,9.145525E2,-9.6288275E2,-1.3646541E2,1.3992606E3,5.4640735E2,-1.1612631E3,-6.699425E2,1.4864963E2,-3.5096664E2,2.7044678E3,9.385696E2,7.8681525E2,-6.85671E1,-1.2682085E3,-1.0116921E3,-4.8800543E2,-8.2265594E2,1.0018277E3,-1.2092664E2,-7.440375E1,-1.9778864E2,2.2598906E3,3.384592E3,6.483693E2,1.3778667E3,-6.69622E1,1.0678263E3,-5.8488247E1,-6.677055E1,-4.3312756E1,-5.5599873E1,1.7460453E1,-3.66906E1,-3.6253017E1,-7.970554E1,3.3926125E1,6.868956E1,-2.0695967E1,2.826555E0,-5.089459E-1,-7.678488E1,1.07786514E2,1.457352E2,2.459016E2,1.5622997E2,5.9542263E1,3.0229559E1,8.257922E1,4.2505016E1,3.3645473E1,7.358155E1],"categories":[],"categories_nodes":[],"categories_segments":[],"categories_sizes":[],"default_left":[0,0,0,0,0,0,0,0,0,0,0,0,0,0,0,0,0,0,0,0,0,0,0,0,0,0,0,0,0,0,0,0,0,0,0,0,0,0,0,0,0,0,0,0,0,0,0,0,0,0,0,0,0],"id":4,"left_children":[1,3,5,7,9,11,13,15,17,19,21,23,25,27,-1,29,31,33,35,37,39,-1,41,43,45,47,49,-1,51,-1,-1,-1,-1,-1,-1,-1,-1,-1,-1,-1,-1,-1,-1,-1,-1,-1,-1,-1,-1,-1,-1,-1,-1],"loss_changes":[2.3955758E9,5.941813E8,3.331012E8,8.610086E7,1.2744341E8,4.827068E8,4.9208858E8,1.2952192E7,1.6435136E7,2.0596851E8,2.0680482E8,5.5845504E7,7.534115E7,5.6721126E8,0E0,1.843712E6,4.520864E6,5.7672652E7,2.3538368E7,2.4922224E7,3.5431364E7,0E0,2.6328755E8,2.580864E6,1.6922432E7,7.876112E6,3.2831488E7,0E0,1.3248454E8,0E0,0E0,0E0,0E0,0E0,0E0,0E0,0E0,0E0,0E0,0E0,0E0,0E0,0E0,0E0,0E0,0E0,0E0,0E0,0E0,0E0,0E0,0E0,0E0],"parents":[2147483647,0,0,1,1,2,2,3,3,4,4,5,5,6,6,7,7,8,8,9,9,10,10,11,11,12,12,13,13,15,15,16,16,17,17,18,18,19,19,20,20,22,22,23,23,24,24,25,25,26,26,28,28],"right_children":[2,4,6,8,10,12,14,16,18,20,22,24,26,28,-1,30,32,34,36,38,40,-1,42,44,46,48,50,-1,52,-1,-1,-1,-1,-1,-1,-1,-1,-1,-1,-1,-1,-1,-1,-1,-1,-1,-1,-1,-1,-1,-1,-1,-1],"split_conditions":[1.705422E2,9.85358E1,2E0,7.5467E1,2E0,1.987E3,2E0,5.09666E1,2E0,1.987E3,1.987E3,2.217456E2,2.235772E2,1.987E3,-6.85671E1,2E0,2E0,1.987E3,2E0,1.312626E2,1.209072E2,-7.440375E1,2E0,1.170658E-1,1.4359584E-2,8.960445E-3,2.002E3,-6.69622E1,2.061638E2,-5.8488247E1,-6.677055E1,-4.3312756E1,-5.5599873E1,1.7460453E1,-3.66906E1,-3.6253017E1,-7.970554E1,3.3926125E1,6.868956E1,-2.0695967E1,2.826555E0,-5.089459E-1,-7.678488E1,1.07786514E2,1.457352E2,2.459016E2,1.5622997E2,5.9542263E1,3.0229559E1,8.257922E1,4.2505016E1,3.3645473E1,7.358155E1],"split_indices":[2,2,4,2,4,3,5,2,4,3,3,2,2,3,0,4,4,3,5,2,2,0,5,1,1,1,3,0,2,0,0,0,0,0,0,0,0,0,0,0,0,0,0,0,0,0,0,0,0,0,0,0,0],"split_type":[0,0,0,0,0,0,0,0,0,0,0,0,0,0,0,0,0,0,0,0,0,0,0,0,0,0,0,0,0,0,0,0,0,0,0,0,0,0,0,0,0,0,0,0,0,0,0,0,0,0,0,0,0],"sum_hessian":[5.446E3,3.576E3,1.87E3,1.494E3,2.082E3,8.06E2,1.064E3,8.89E2,6.05E2,8.94E2,1.188E3,2.09E2,5.97E2,9.46E2,1.18E2,5.14E2,3.75E2,2.78E2,3.27E2,2.14E2,6.8E2,1.4E2,1.048E3,1.29E2,8E1,3.61E2,2.36E2,1.1E2,8.36E2,2.16E2,2.98E2,1.57E2,2.18E2,6.3E1,2.15E2,2.92E2,3.5E1,1.16E2,9.8E1,2.56E2,4.24E2,9.2E2,1.28E2,1.15E2,1.4E1,9E0,7.1E1,2.5E1,3.36E2,1.54E2,8.2E1,4.24E2,4.12E2],"tree_param":{"num_deleted":"0","num_feature":"8","num_nodes":"53","size_leaf_vector":"1"}},{"base_weights":[1.8375802E0,-5.827818E2,7.061126E2,-1.5213435E3,-4.4348502E2,-6.652975E1,9.888726E2,-8.005637E1,-7.195682E1,-8.5332056E2,-1.0873844E2,7.9948486E2,2.3088816E3,-1.048087E3,-5.9528033E2,-2.2461754E2,7.665171E2,5.0946246E2,1.29254E3,1.5801371E3,2.9799004E3,-5.5599556E1,-3.1337011E1,-3.456235E1,7.8944674E0,-1.983061E1,-2.182279E0,2.5766224E1,6.298456E1,1.614345E1,3.5074917E1,5.4782436E1,7.388342E1,6.548781E1,9.0596794E1,1.8532063E2,1.3707286E2],"categories":[],"categories_nodes":[],"categories_segments":[],"categories_sizes":[],"default_left":[0,0,0,0,0,0,0,0,0,0,0,0,0,0,0,0,0,0,0,0,0,0,0,0,0,0,0,0,0,0,0,0,0,0,0,0,0],"id":5,"left_children":[1,3,5,7,9,-1,11,-1,-1,13,15,17,19,21,23,25,27,29,31,33,35,-1,-1,-1,-1,-1,-1,-1,-1,-1,-1,-1,-1,-1,-1,-1,-1],"loss_changes":[2.253002E9,3.902329E8,1.4306981E9,2.25984E5,3.5728934E8,0E0,5.4313856E8,0E0,0E0,5.8226944E7,1.4571509E8,2.721788E8,1.2878643E8,1.7234752E7,3.6682704E7,3.9450496E7,2.016208E7,4.287965E7,2.4113536E7,5.960896E6,1.4261504E7,0E0,0E0,0E0,0E0,0E0,0E0,0E0,0E0,0E0,0E0,0E0,0E0,0E0,0E0,0E0,0E0],"parents":[2147483647,0,0,1,1,2,2,3,3,4,4,6,6,9,9,10,10,11,11,12,12,13,13,14,14,15,15,16,16,17,17,18,18,19,19,20,20],"right_children":[2,4,6,8,10,-1,12,-1,-1,14,16,18,20,22,24,26,28,30,32,34,36,-1,-1,-1,-1,-1,-1,-1,-1,-1,-1,-1,-1,-1,-1,-1,-1],"split_conditions":[1.50205E2,1E0,1E0,9.85358E1,9.4312E1,-6.652975E1,3E0,-8.005637E1,-7.195682E1,6.25168E1,3E0,2.061638E2,1.89853E2,3E0,3E0,1.192782E2,1.235046E2,1.76437E2,2.356906E2,1.713448E2,2.2694623E-2,-5.5599556E1,-3.1337011E1,-3.456235E1,7.8944674E0,-1.983061E1,-2.182279E0,2.5766224E1,6.298456E1,1.614345E1,3.5074917E1,5.4782436E1,7.388342E1,6.548781E1,9.0596794E1,1.8532063E2,1.3707286E2],"split_indices":[2,6,6,2,2,0,6,0,0,2,6,2,2,6,6,2,2,2,2,2,1,0,0,0,0,0,0,0,0,0,0,0,0,0,0,0,0],"split_type":[0,0,0,0,0,0,0,0,0,0,0,0,0,0,0,0,0,0,0,0,0,0,0,0,0,0,0,0,0,0,0,0,0,0,0,0,0],"sum_hessian":[5.47E3,2.989E3,2.481E3,3.85E2,2.604E3,3.02E2,2.179E3,1.86E2,1.99E2,1.17E3,1.434E3,1.907E3,2.72E2,6.65E2,5.05E2,1.267E3,1.67E2,1.202E3,7.05E2,1.32E2,1.4E2,5.76E2,8.9E1,4.48E2,5.7E1,6.49E2,6.18E2,1.12E2,5.5E1,6.11E2,5.91E2,3.45E2,3.6E2,6.4E1,6.8E1,3.1E1,1.09E2],"tree_param":{"num_deleted":"0","num_feature":"8","num_nodes":"37","size_leaf_vector":"1"}},{"base_weights":[-4.779192E0,-5.435133E2,6.922341E2,-7.2360054E1,-4.1238007E2,-6.285333E1,9.679579E2,-9.2932043E2,-1.5756772E2,2.2336274E3,7.8152136E2,-4.2490012E2,-9.9603107E2,5.4817773E2,-2.5496661E2,1.6582023E3,2.8228513E3,4.8996143E2,1.2468115E3,-4.3320988E1,-6.4253006E0,-5.3865963E1,-3.9143917E1,1.7765507E1,4.51927E1,-2.44535E1,-2.4876606E0,8.662822E1,4.405441E1,1.4425208E2,3.454945E1,1.7273615E1,3.426721E1,6.616884E1,4.130985E1],"categories":[],"categories_nodes":[],"categories_segments":[],"categories_sizes":[],"default_left":[0,0,0,0,0,0,0,0,0,0,0,0,0,0,0,0,0,0,0,0,0,0,0,0,0,0,0,0,0,0,0,0,0,0,0],"id":6,"left_children":[1,3,5,-1,7,-1,9,11,13,15,17,19,21,23,25,27,29,31,33,-1,-1,-1,-1,-1,-1,-1,-1,-1,-1,-1,-1,-1,-1,-1,-1],"loss_changes":[2.0404938E9,3.6261555E8,1.2744797E9,0E0,3.5260662E8,0E0,4.8812045E8,2.9322944E7,1.2352581E8,8.550528E7,2.4506842E8,1.3628862E7,1.2670528E7,1.4632676E7,7.578433E7,6.389088E6,1.5240192E7,3.1239952E7,2.1352064E7,0E0,0E0,0E0,0E0,0E0,0E0,0E0,0E0,0E0,0E0,0E0,0E0,0E0,0E0,0E0,0E0],"parents":[2147483647,0,0,1,1,2,2,4,4,6,6,7,7,8,8,9,9,10,10,11,11,12,12,13,13,14,14,15,15,16,16,17,17,18,18],"right_children":[2,4,6,-1,8,-1,10,12,14,16,18,20,22,24,26,28,30,32,34,-1,-1,-1,-1,-1,-1,-1,-1,-1,-1,-1,-1,-1,-1,-1,-1],"split_conditions":[1.526998E2,1E0,1E0,-7.2360054E1,8.0996E1,-6.285333E1,1.987E3,1.987E3,1.987E3,1.907188E2,2.061638E2,4.57428E1,5.97536E1,1.219072E2,1.126176E2,1.3054457E-1,2.63591E2,1.805976E2,2.009E3,-4.3320988E1,-6.4253006E0,-5.3865963E1,-3.9143917E1,1.7765507E1,4.51927E1,-2.44535E1,-2.4876606E0,8.662822E1,4.405441E1,1.4425208E2,3.454945E1,1.7273615E1,3.426721E1,6.616884E1,4.130985E1],"split_indices":[2,6,6,0,2,0,3,3,3,2,2,2,2,2,2,1,2,2,3,0,0,0,0,0,0,0,0,0,0,0,0,0,0,0,0],"split_type":[0,0,0,0,0,0,0,0,0,0,0,0,0,0,0,0,0,0,0,0,0,0,0,0,0,0,0,0,0,0,0,0,0,0,0],"sum_hessian":[5.432E3,3.064E3,2.368E3,3.87E2,2.677E3,2.93E2,2.075E3,8.83E2,1.794E3,2.65E2,1.81E3,1.04E2,7.79E2,2.17E2,1.577E3,1.36E2,1.29E2,1.114E3,6.96E2,4.1E1,6.3E1,5.61E2,2.18E2,1.42E2,7.5E1,7.36E2,8.41E2,1.23E2,1.3E1,1.25E2,4E0,6.42E2,4.72E2,5.87E2,1.09E2],"tree_param":{"num_deleted":"0","num_feature":"8","num_nodes":"35","size_leaf_vector":"1"}},{"base_weights":[1.1347033E1,-6.544811E1,2.0405045E2,5.4182293E1,7.729629E1,1.204229E2,-1.8783908E2,7.164302E1,2.1869727E2,-2.0370787E2,3.9117877E2,2.0962696E1,3.1374252E0,9.882414E0,2.6100885E1,-8.916361E0,-3.2814545E1,5.9176765E1,5.8623824E0],"categories":[],"categories_nodes":[],"categories_segments":[],"categories_sizes":[],"default_left":[0,0,0,0,0,0,0,0,0,0,0,0,0,0,0,0,0,0,0],"id":7,"left_children":[1,-1,3,-1,5,7,9,11,13,15,17,-1,-1,-1,-1,-1,-1,-1,-1],"loss_changes":[1.3983489E9,0E0,5.346331E8,0E0,4.7966984E7,1.727546E7,5.473134E6,7.430946E6,7.532436E6,6.453028E6,3.333401E6,0E0,0E0,0E0,0E0,0E0,0E0,0E0,0E0],"parents":[2147483647,0,0,2,2,4,4,5,5,6,6,7,7,8,8,9,9,10,10],"right_children":[2,-1,4,-1,6,8,10,12,14,16,18,-1,-1,-1,-1,-1,-1,-1,-1],"split_conditions":[1E0,-6.544811E1,1.987E3,5.4182293E1,2.009E3,2.004E3,2.075E1,5.48E0,2.01E1,1.97E1,2.085E1,2.0962696E1,3.1374252E0,9.882414E0,2.6100885E1,-8.916361E0,-3.2814545E1,5.9176765E1,5.8623824E0],"split_indices":[6,0,3,0,3,3,0,0,0,0,0,0,0,0,0,0,0,0,0],"split_type":[0,0,0,0,0,0,0,0,0,0,0,0,0,0,0,0,0,0,0],"sum_hessian":[5.494E3,6.99E2,4.795E3,6.03E2,4.192E3,3.606E3,5.86E2,2.411E3,1.195E3,5.71E2,1.5E1,5.9E1,2.352E3,1.119E3,7.6E1,5.42E2,2.9E1,3E0,1.2E1],"tree_param":{"num_deleted":"0","num_feature":"8","num_nodes":"19","size_leaf_vector":"1"}},{"base_weights":[1.0021008E1,-6.2088146E1,1.960524E2,1.0334592E3,7.3988174E1,1.0393457E3,-2.4800621E1,1.1062683E2,-1.5319722E2,1.0245607E3,2.6055837E3,7.0956E1,1.8911696E2,-1.3521622E2,-6.480813E2,5.298366E1,2.8397322E1,1.4341994E2,3.8845592E1,5.2826624E0,-1.8238068E0,1.185094E1,1.7078657E0,-7.8990817E0,3.8112892E1,-4.2846138E1,-1.7674881E1],"categories":[],"categories_nodes":[],"categories_segments":[],"categories_sizes":[],"default_left":[0,0,0,0,0,0,0,0,0,0,0,0,0,0,0,0,0,0,0,0,0,0,0,0,0,0,0],"id":8,"left_children":[1,-1,3,5,7,9,-1,11,13,15,17,19,21,23,25,-1,-1,-1,-1,-1,-1,-1,-1,-1,-1,-1,-1],"loss_changes":[1.2742808E9,0E0,4.8688672E8,5.97184E6,3.463547E7,1.1315328E7,0E0,1.1139972E7,5.055317E6,9.017152E6,1.72696E5,8.879303E6,8.914036E6,1.1541258E7,9.269E5,0E0,0E0,0E0,0E0,0E0,0E0,0E0,0E0,0E0,0E0,0E0,0E0],"parents":[2147483647,0,0,2,2,3,3,4,4,5,5,7,7,8,8,9,9,10,10,11,11,12,12,13,13,14,14],"right_children":[2,-1,4,6,8,10,-1,12,14,16,18,20,22,24,26,-1,-1,-1,-1,-1,-1,-1,-1,-1,-1,-1,-1],"split_conditions":[1E0,-6.2088146E1,1.987E3,1.7948441E-1,2.009E3,1.7404903E-1,-2.4800621E1,2.004E3,1.5993759E-1,1.3334712E-1,1.7607054E-1,2.002E3,9.299703E-2,1.4699927E-1,1E0,5.298366E1,2.8397322E1,1.4341994E2,3.8845592E1,5.2826624E0,-1.8238068E0,1.185094E1,1.7078657E0,-7.8990817E0,3.8112892E1,-4.2846138E1,-1.7674881E1],"split_indices":[6,0,3,1,3,1,0,3,1,1,1,3,1,1,7,0,0,0,0,0,0,0,0,0,0,0,0],"split_type":[0,0,0,0,0,0,0,0,0,0,0,0,0,0,0,0,0,0,0,0,0,0,0,0,0,0,0],"sum_hessian":[5.47E3,7.07E2,4.763E3,6.05E2,4.158E3,6.03E2,2E0,3.581E3,5.77E2,5.99E2,4E0,2.38E3,1.201E3,5.58E2,1.9E1,5.55E2,4.4E1,3E0,1E0,1.799E3,5.81E2,9.17E2,2.84E2,5.45E2,1.3E1,1E1,9E0],"tree_param":{"num_deleted":"0","num_feature":"8","num_nodes":"27","size_leaf_vector":"1"}},{"base_weights":[1.2972992E1,-5.784516E2,6.102337E2,-9.9866296E2,-3.7536575E2,-1.086296E3,8.589447E2,-6.703518E1,-9.422059E2,-6.035107E1,-2.580728E2,-5.746821E1,-5.0597282E1,5.479185E2,1.4169092E3,-1.0464581E3,-7.832992E2,-3.3833588E2,3.4294745E2,4.1091934E2,1.4969727E3,1.2214873E3,2.7825522E3,-5.474702E1,-4.7313137E1,-4.285739E1,-1.4494791E1,-2.5238188E1,-7.290857E0,7.9281907E0,2.7609846E1,1.4053409E1,3.3032543E1,5.3628944E1,8.847158E1,4.6865574E1,6.947515E1,1.9374359E2,1.2497277E2],"categories":[],"categories_nodes":[],"categories_segments":[],"categories_sizes":[],"default_left":[0,0,0,0,0,0,0,0,0,0,0,0,0,0,0,0,0,0,0,0,0,0,0,0,0,0,0,0,0,0,0,0,0,0,0,0,0,0,0],"id":9,"left_children":[1,3,5,7,9,11,13,-1,15,-1,17,-1,-1,19,21,23,25,27,29,31,33,35,37,-1,-1,-1,-1,-1,-1,-1,-1,-1,-1,-1,-1,-1,-1,-1,-1],"loss_changes":[1.9410243E9,2.3524538E8,1.154532E9,1.6095808E7,1.8141845E8,4.76992E5,4.1311923E8,0E0,1.2018368E7,0E0,7.893974E7,0E0,0E0,1.9870403E8,2.2424486E8,1.221728E6,1.1082896E7,4.612845E7,7.358444E6,4.3299696E7,2.041728E7,3.441037E7,2.3090368E7,0E0,0E0,0E0,0E0,0E0,0E0,0E0,0E0,0E0,0E0,0E0,0E0,0E0,0E0,0E0,0E0],"parents":[2147483647,0,0,1,1,2,2,3,3,4,4,5,5,6,6,8,8,10,10,13,13,14,14,15,15,16,16,17,17,18,18,19,19,20,20,21,21,22,22],"right_children":[2,4,6,8,10,12,14,-1,16,-1,18,-1,-1,20,22,24,26,28,30,32,34,36,38,-1,-1,-1,-1,-1,-1,-1,-1,-1,-1,-1,-1,-1,-1,-1,-1],"split_conditions":[1.43447E2,7.5467E1,1E0,1E0,1E0,1.85224E2,1.993426E2,-6.703518E1,5.20324E1,-6.035107E1,3E0,-5.746821E1,-5.0597282E1,3E0,3E0,4.51402E1,3E0,1.098228E2,1.092228E2,1.805976E2,1.65121E2,2.295694E2,2.142534E-2,-5.474702E1,-4.7313137E1,-4.285739E1,-1.4494791E1,-2.5238188E1,-7.290857E0,7.9281907E0,2.7609846E1,1.4053409E1,3.3032543E1,5.3628944E1,8.847158E1,4.6865574E1,6.947515E1,1.9374359E2,1.2497277E2],"split_indices":[2,2,6,6,6,2,2,0,2,0,6,0,0,6,6,2,6,2,2,2,2,2,1,0,0,0,0,0,0,0,0,0,0,0,0,0,0,0,0],"split_type":[0,0,0,0,0,0,0,0,0,0,0,0,0,0,0,0,0,0,0,0,0,0,0,0,0,0,0,0,0,0,0,0,0,0,0,0,0,0,0],"sum_hessian":[5.493E3,2.76E3,2.733E3,8.98E2,1.862E3,3.49E2,2.384E3,1.24E2,7.74E2,2.29E2,1.633E3,1.81E2,1.68E2,1.532E3,8.52E2,4.64E2,3.1E2,1.441E3,1.92E2,1.34E3,1.92E2,7.47E2,1.05E2,3.06E2,1.58E2,2.69E2,4.1E1,7.72E2,6.69E2,1.03E2,8.9E1,8.83E2,4.57E2,7.7E1,1.15E2,2.8E2,4.67E2,1.9E1,8.6E1],"tree_param":{"num_deleted":"0","num_feature":"8","num_nodes":"39","size_leaf_vector":"1"}},{"base_weights":[4.54111E-1,-5.5858906E1,1.6656616E2,6.811374E1,8.5813617E2,1.0512139E2,-1.560124E2,1.0626698E3,7.890954E2,1.266958E2,2.0447216E1,-1.6368317E2,6.101348E2,6.777809E2,1.3042651E3,2.4407059E2,8.0243805E2,4.251617E0,1.3457305E1,-2.7691307E0,6.608452E0,3.3149624E1,-8.529393E0,-3.0868214E1,6.891752E1,4.295157E1,9.504333E0,1.749953E2,6.062507E1,2.120727E1,-4.63816E0,3.905534E1,5.5879658E1],"categories":[],"categories_nodes":[],"categories_segments":[],"categories_sizes":[],"default_left":[0,0,0,0,0,0,0,0,0,0,0,0,0,0,0,0,0,0,0,0,0,0,0,0,0,0,0,0,0,0,0,0,0],"id":10,"left_children":[1,-1,3,5,7,9,11,13,15,17,19,21,23,25,27,29,31,-1,-1,-1,-1,-1,-1,-1,-1,-1,-1,-1,-1,-1,-1,-1,-1],"loss_changes":[1.0028931E9,0E0,3.20153E8,3.417264E7,7.435552E6,6.455056E6,3.531773E6,1.2598192E7,3.01792E6,1.6695756E7,6.0986165E6,3.417748E6,6.509228E6,4.963086E6,1.3484256E7,7.6737406E5,2.023552E6,0E0,0E0,0E0,0E0,0E0,0E0,0E0,0E0,0E0,0E0,0E0,0E0,0E0,0E0,0E0,0E0],"parents":[2147483647,0,0,2,2,3,3,4,4,5,5,6,6,7,7,8,8,9,9,10,10,11,11,12,12,13,13,14,14,15,15,16,16],"right_children":[2,-1,4,6,8,10,12,14,16,18,20,22,24,26,28,30,32,-1,-1,-1,-1,-1,-1,-1,-1,-1,-1,-1,-1,-1,-1,-1,-1],"split_conditions":[1E0,-5.5858906E1,3E0,2E0,2.5776993E-2,9.7294725E-2,2.12E1,9.816092E-3,2.6491715E-2,6.557745E-2,1E0,5.15E0,1.0055503E-2,5.638944E-3,1.0808272E-2,2.6180033E-2,1.5146782E-1,4.251617E0,1.3457305E1,-2.7691307E0,6.608452E0,3.3149624E1,-8.529393E0,-3.0868214E1,6.891752E1,4.295157E1,9.504333E0,1.749953E2,6.062507E1,2.120727E1,-4.63816E0,3.905534E1,5.5879658E1],"split_indices":[6,0,6,6,1,1,0,1,1,1,7,0,1,1,1,1,1,0,0,0,0,0,0,0,0,0,0,0,0,0,0,0,0],"split_type":[0,0,0,0,0,0,0,0,0,0,0,0,0,0,0,0,0,0,0,0,0,0,0,0,0,0,0,0,0,0,0,0,0],"sum_hessian":[5.4E3,6.98E2,4.702E3,4.117E3,5.85E2,3.534E3,5.83E2,1.44E2,4.41E2,2.816E3,7.18E2,5.78E2,5E0,5.7E1,8.7E1,1.1E1,4.3E2,2.18E3,6.36E2,4.28E2,2.9E2,4E0,5.74E2,2E0,3E0,4.1E1,1.6E1,2E0,8.5E1,7E0,4E0,4.06E2,2.4E1],"tree_param":{"num_deleted":"0","num_feature":"8","num_nodes":"33","size_leaf_vector":"1"}},{"base_weights":[-1.450973E0,-4.4156528E2,6.607566E2,-7.6961237E2,-1.5268149E2,-4.7993465E1,8.886294E2,-9.592257E2,-5.5056445E2,-5.281911E1,-1.4889962E1,1.8366788E3,7.514322E2,-1.00206757E3,-6.464368E2,-6.375479E2,8.696729E1,6.220084E2,-1.0092047E2,1.2441058E3,2.3075933E3,4.7205328E2,1.1388223E3,-6.1494587E1,-4.793057E1,-4.1113194E1,-1.1143364E1,-5.582442E1,-2.825311E1,-1.0034199E1,8.57714E0,1.6707651E1,4.483483E1,-1.1950099E1,4.643787E0,4.097638E1,7.408993E1,9.902676E1,1.3120695E2,1.7213148E1,3.0103388E1,4.2728107E1,6.1542427E1],"categories":[],"categories_nodes":[],"categories_segments":[],"categories_sizes":[],"default_left":[0,0,0,0,0,0,0,0,0,0,0,0,0,0,0,0,0,0,0,0,0,0,0,0,0,0,0,0,0,0,0,0,0,0,0,0,0,0,0,0,0,0,0],"id":11,"left_children":[1,3,5,7,9,-1,11,13,15,-1,17,19,21,23,25,27,29,31,33,35,37,39,41,-1,-1,-1,-1,-1,-1,-1,-1,-1,-1,-1,-1,-1,-1,-1,-1,-1,-1,-1,-1],"loss_changes":[1.5781859E9,3.0816064E8,7.99272E8,6.272813E7,2.1553184E8,0E0,2.4523085E8,1.0272768E7,3.937312E7,0E0,8.241593E7,6.3820544E7,1.7890464E8,5.898688E6,7.338196E6,2.1031264E7,2.1266405E6,1.3853368E7,3.5478836E7,9.683744E6,8.466304E6,1.582536E7,1.7101696E7,0E0,0E0,0E0,0E0,0E0,0E0,0E0,0E0,0E0,0E0,0E0,0E0,0E0,0E0,0E0,0E0,0E0,0E0,0E0,0E0],"parents":[2147483647,0,0,1,1,2,2,3,3,4,4,6,6,7,7,8,8,10,10,11,11,12,12,13,13,14,14,15,15,16,16,17,17,18,18,19,19,20,20,21,21,22,22],"right_children":[2,4,6,8,10,-1,12,14,16,-1,18,20,22,24,26,28,30,32,34,36,38,40,42,-1,-1,-1,-1,-1,-1,-1,-1,-1,-1,-1,-1,-1,-1,-1,-1,-1,-1,-1,-1],"split_conditions":[1.595578E2,1.005332E2,1E0,6.32826E1,1E0,-4.7993465E1,1.987E3,3E0,3E0,-5.281911E1,1.987E3,1.89853E2,2.085638E2,1E0,5.38614E1,1E0,1.8813776E-2,1.256046E2,1.289652E2,3.225009E-2,2.26172E2,1.805976E2,2.246088E2,-6.1494587E1,-4.793057E1,-4.1113194E1,-1.1143364E1,-5.582442E1,-2.825311E1,-1.0034199E1,8.57714E0,1.6707651E1,4.483483E1,-1.1950099E1,4.643787E0,4.097638E1,7.408993E1,9.902676E1,1.3120695E2,1.7213148E1,3.0103388E1,4.2728107E1,6.1542427E1],"split_indices":[2,2,6,2,6,0,3,6,6,0,3,2,2,6,2,6,1,2,2,1,2,2,2,0,0,0,0,0,0,0,0,0,0,0,0,0,0,0,0,0,0,0,0],"split_type":[0,0,0,0,0,0,0,0,0,0,0,0,0,0,0,0,0,0,0,0,0,0,0,0,0,0,0,0,0,0,0,0,0,0,0,0,0,0,0,0,0,0,0],"sum_hessian":[5.413E3,3.252E3,2.161E3,1.522E3,1.73E3,2.66E2,1.895E3,8.14E2,7.08E2,2.28E2,1.502E3,2.38E2,1.657E3,7.14E2,1E2,6.23E2,8.5E1,1.78E2,1.324E3,1.07E2,1.31E2,9.64E2,6.93E2,1.1E2,6.04E2,7E1,3E1,8E1,5.43E2,1.9E1,6.6E1,8.8E1,9E1,7.73E2,5.51E2,4E1,6.7E1,6.8E1,6.3E1,4.88E2,4.76E2,1.72E2,5.21E2],"tree_param":{"num_deleted":"0","num_feature":"8","num_nodes":"43","size_leaf_vector":"1"}},{"base_weights":[-2.9926822E0,-5.0489117E1,1.4291632E2,7.973389E2,5.209421E1,7.4176154E2,9.6237836E2,9.0690186E1,-1.8719661E2,8.6313336E2,6.089274E2,2.0844512E3,7.736337E2,1.0141553E2,-1.0272775E2,-2.6498618E2,1.3179536E0,3.7664078E1,9.812054E1,7.202658E0,3.4365753E1,6.471887E1,1.683374E2,3.2905132E1,6.2616573E1,4.6142945E0,2.0170452E1,-2.9108992E1,4.644195E-1,5.8914295E1,-1.3745081E1,-2.4813235E0,8.51349E1],"categories":[],"categories_nodes":[],"categories_segments":[],"categories_sizes":[],"default_left":[0,0,0,0,0,0,0,0,0,0,0,0,0,0,0,0,0,0,0,0,0,0,0,0,0,0,0,0,0,0,0,0,0],"id":12,"left_children":[1,-1,3,5,7,9,11,13,15,17,19,21,23,25,27,29,31,-1,-1,-1,-1,-1,-1,-1,-1,-1,-1,-1,-1,-1,-1,-1,-1],"loss_changes":[8.019231E8,0E0,2.8334906E8,4.614496E6,3.869588E7,6.55136E6,2.867124E7,7.49304E6,8.535198E6,2.5932384E7,7.662376E6,1.5902008E7,6.03264E6,9.38626E6,1.0209904E7,6.219458E6,1.490689E7,0E0,0E0,0E0,0E0,0E0,0E0,0E0,0E0,0E0,0E0,0E0,0E0,0E0,0E0,0E0,0E0],"parents":[2147483647,0,0,2,2,3,3,4,4,5,5,6,6,7,7,8,8,9,9,10,10,11,11,12,12,13,13,14,14,15,15,16,16],"right_children":[2,-1,4,6,8,10,12,14,16,18,20,22,24,26,28,30,32,-1,-1,-1,-1,-1,-1,-1,-1,-1,-1,-1,-1,-1,-1,-1,-1],"split_conditions":[1E0,-5.0489117E1,1.987E3,8.2526475E-2,2.009E3,3.7201125E-2,8.9735806E-2,1.4975314E-1,8.013136E-2,3.4457777E-2,4.1947547E-2,8.812134E-2,1.5146782E-1,1.3669689E-1,8.06E0,5.15E0,2.075E1,3.7664078E1,9.812054E1,7.202658E0,3.4365753E1,6.471887E1,1.683374E2,3.2905132E1,6.2616573E1,4.6142945E0,2.0170452E1,-2.9108992E1,4.644195E-1,5.8914295E1,-1.3745081E1,-2.4813235E0,8.51349E1],"split_indices":[6,0,3,1,3,1,1,1,1,1,1,1,1,1,0,0,0,0,0,0,0,0,0,0,0,0,0,0,0,0,0,0,0],"split_type":[0,0,0,0,0,0,0,0,0,0,0,0,0,0,0,0,0,0,0,0,0,0,0,0,0,0,0,0,0,0,0,0,0],"sum_hessian":[5.457E3,6.9E2,4.767E3,5.8E2,4.187E3,4.38E2,1.42E2,3.606E3,5.81E2,2.26E2,2.12E2,1.9E1,1.23E2,3.417E3,1.89E2,4.11E2,1.7E2,2.07E2,1.9E1,3.1E1,1.81E2,1.3E1,6E0,1.01E2,2.2E1,3.318E3,9.9E1,3.5E1,1.54E2,2E0,4.09E2,1.66E2,4E0],"tree_param":{"num_deleted":"0","num_feature":"8","num_nodes":"33","size_leaf_vector":"1"}},{"base_weights":[2.4029827E0,-5.2212256E2,5.2788776E2,-9.020207E2,-3.3365164E2,-8.763089E2,7.366134E2,-9.8876825E2,-7.875831E2,-4.9535442E1,-2.3910901E2,-4.7751156E1,-4.177183E1,5.0013077E2,1.2125409E3,-5.6179646E1,-9.630567E2,-8.4472815E2,-3.5567282E2,2.993179E2,-3.1177255E2,1.2487407E3,3.9344107E2,2.16649E3,1.075691E3,-4.968523E1,-4.45469E1,-5.381327E1,-3.993475E1,-3.1206709E1,-1.29489E1,5.413417E0,2.6565567E1,-2.6062674E1,-1.0789023E1,4.8436935E1,7.7410965E1,9.98423E0,2.73969E1,8.397181E1,1.17833084E2,5.6749966E1,3.6075085E1],"categories":[],"categories_nodes":[],"categories_segments":[],"categories_sizes":[],"default_left":[0,0,0,0,0,0,0,0,0,0,0,0,0,0,0,0,0,0,0,0,0,0,0,0,0,0,0,0,0,0,0,0,0,0,0,0,0,0,0,0,0,0,0],"id":13,"left_children":[1,3,5,7,9,11,13,15,17,-1,19,-1,-1,21,23,-1,25,27,29,31,33,35,37,39,41,-1,-1,-1,-1,-1,-1,-1,-1,-1,-1,-1,-1,-1,-1,-1,-1,-1,-1],"loss_changes":[1.5074216E9,1.9566688E8,8.0137216E8,8.22432E6,1.1350411E8,3.4016E5,2.6714598E8,6.91776E5,9.472816E6,0E0,6.2769984E7,0E0,0E0,1.2657933E8,1.0067008E8,0E0,7.9584E4,2.859232E6,1.0839455E6,8.407704E6,2.8280384E7,1.5102144E7,4.1619296E7,5.11728E6,1.371648E7,0E0,0E0,0E0,0E0,0E0,0E0,0E0,0E0,0E0,0E0,0E0,0E0,0E0,0E0,0E0,0E0,0E0,0E0],"parents":[2147483647,0,0,1,1,2,2,3,3,4,4,5,5,6,6,7,7,8,8,10,10,13,13,14,14,16,16,17,17,18,18,19,19,20,20,21,21,22,22,23,23,24,24],"right_children":[2,4,6,8,10,12,14,16,18,-1,20,-1,-1,22,24,-1,26,28,30,32,34,36,38,40,42,-1,-1,-1,-1,-1,-1,-1,-1,-1,-1,-1,-1,-1,-1,-1,-1,-1,-1],"split_conditions":[1.43447E2,7.5467E1,1E0,5.09666E1,1E0,1.705422E2,2.085638E2,1E0,3E0,-4.9535442E1,1.987E3,-4.7751156E1,-4.177183E1,1.987E3,1.987E3,-5.6179646E1,4.51402E1,1E0,5.38614E1,1.085912E2,9.85358E1,1.725106E2,1.697448E2,2.26172E2,2.009E3,-4.968523E1,-4.45469E1,-5.381327E1,-3.993475E1,-3.1206709E1,-1.29489E1,5.413417E0,2.6565567E1,-2.6062674E1,-1.0789023E1,4.8436935E1,7.7410965E1,9.98423E0,2.73969E1,8.397181E1,1.17833084E2,5.6749966E1,3.6075085E1],"split_indices":[2,2,6,2,6,2,2,6,6,0,3,0,0,3,3,0,2,6,2,2,2,2,2,2,3,0,0,0,0,0,0,0,0,0,0,0,0,0,0,0,0,0,0],"split_type":[0,0,0,0,0,0,0,0,0,0,0,0,0,0,0,0,0,0,0,0,0,0,0,0,0,0,0,0,0,0,0,0,0,0,0,0,0,0,0,0,0,0,0],"sum_hessian":[5.467E3,2.736E3,2.731E3,9.06E2,1.83E3,3.53E2,2.378E3,5.11E2,3.95E2,2.29E2,1.601E3,1.13E2,2.4E2,1.59E3,7.88E2,7.5E1,4.36E2,3.48E2,4.7E1,1.9E2,1.411E3,1.97E2,1.393E3,9.7E1,6.91E2,2.97E2,1.39E2,5.4E1,2.94E2,1.1E1,3.6E1,1.05E2,8.5E1,4.42E2,9.69E2,1.04E2,9.3E1,6.19E2,7.74E2,3E1,6.7E1,5.9E2,1.01E2],"tree_param":{"num_deleted":"0","num_feature":"8","num_nodes":"43","size_leaf_vector":"1"}},{"base_weights":[-1.2556465E1,-5.0485553E2,4.8970526E2,-8.5564294E2,-3.2430612E2,-8.293629E2,6.86857E2,-9.38189E2,-7.429108E2,-4.7087543E1,-2.3644672E2,-4.445782E1,-7.7942236E2,3.4094565E2,9.6448584E2,-5.3586586E1,-9.140048E2,-7.911793E2,-3.78039E2,-3.0121957E2,2.4214468E2,-5.665383E2,-7.911269E2,2.4263203E2,1.0148539E3,8.494324E2,1.8304799E3,-4.772586E1,-4.0819294E1,-5.097978E1,-3.73406E1,-2.2181335E1,1.4387908E1,-2.146527E1,-7.867126E0,3.4420192E0,2.188929E1,-3.0941965E1,2.8218446E0,-1.9968506E0,-3.9746387E1,1.4376323E1,-2.0329955E0,5.6271973E1,1.198195E1,3.1316803E1,5.3923187E1,8.319272E1,1.16289024E2],"categories":[],"categories_nodes":[],"categories_segments":[],"categories_sizes":[],"default_left":[0,0,0,0,0,0,0,0,0,0,0,0,0,0,0,0,0,0,0,0,0,0,0,0,0,0,0,0,0,0,0,0,0,0,0,0,0,0,0,0,0,0,0,0,0,0,0,0,0],"id":14,"left_children":[1,3,5,7,9,11,13,15,17,-1,19,-1,21,23,25,-1,27,29,31,33,35,37,39,41,43,45,47,-1,-1,-1,-1,-1,-1,-1,-1,-1,-1,-1,-1,-1,-1,-1,-1,-1,-1,-1,-1,-1,-1],"loss_changes":[1.3582156E9,1.7541171E8,7.076633E8,8.068032E6,9.92139E7,3.63232E5,2.2688922E8,7.63456E5,6.797872E6,0E0,4.9858544E7,0E0,5.1944E4,6.965148E7,1.2916582E8,0E0,1.05488E6,2.835344E6,2.2674725E6,2.6008632E7,6.479455E6,4.913575E5,5.04616E5,1.1738016E7,1.1217104E7,5.859507E7,8.755264E6,0E0,0E0,0E0,0E0,0E0,0E0,0E0,0E0,0E0,0E0,0E0,0E0,0E0,0E0,0E0,0E0,0E0,0E0,0E0,0E0,0E0,0E0],"parents":[2147483647,0,0,1,1,2,2,3,3,4,4,5,5,6,6,7,7,8,8,10,10,12,12,13,13,14,14,16,16,17,17,18,18,19,19,20,20,21,21,22,22,23,23,24,24,25,25,26,26],"right_children":[2,4,6,8,10,12,14,16,18,-1,20,-1,22,24,26,-1,28,30,32,34,36,38,40,42,44,46,48,-1,-1,-1,-1,-1,-1,-1,-1,-1,-1,-1,-1,-1,-1,-1,-1,-1,-1,-1,-1,-1,-1],"split_conditions":[1.43447E2,7.6467E1,1E0,5.09666E1,1E0,1.79866E2,1.818608E2,1E0,3E0,-4.7087543E1,3E0,-4.445782E1,5.638944E-3,3E0,3E0,-5.3586586E1,4.51402E1,1E0,6.66142E1,1.098228E2,1.092228E2,1.8E1,5.73E0,2E0,1.2283769E-1,2.201798E2,8.3147705E-2,-4.772586E1,-4.0819294E1,-5.097978E1,-3.73406E1,-2.2181335E1,1.4387908E1,-2.146527E1,-7.867126E0,3.4420192E0,2.188929E1,-3.0941965E1,2.8218446E0,-1.9968506E0,-3.9746387E1,1.4376323E1,-2.0329955E0,5.6271973E1,1.198195E1,3.1316803E1,5.3923187E1,8.319272E1,1.16289024E2],"split_indices":[2,2,6,2,6,2,2,6,6,0,6,0,1,6,6,0,2,6,2,2,2,0,0,6,1,2,1,0,0,0,0,0,0,0,0,0,0,0,0,0,0,0,0,0,0,0,0,0,0],"split_type":[0,0,0,0,0,0,0,0,0,0,0,0,0,0,0,0,0,0,0,0,0,0,0,0,0,0,0,0,0,0,0,0,0,0,0,0,0,0,0,0,0,0,0,0,0,0,0,0,0],"sum_hessian":[5.491E3,2.773E3,2.718E3,9.41E2,1.832E3,3.53E2,2.365E3,5.39E2,4.02E2,2.27E2,1.605E3,1.53E2,2E2,1.054E3,1.311E3,7.6E1,4.63E2,3.54E2,4.8E1,1.414E3,1.91E2,1.3E1,1.87E2,9.21E2,1.33E2,1.159E3,1.52E2,3.21E2,1.42E2,5.4E1,3E2,4.4E1,4E0,7.47E2,6.67E2,1.02E2,8.9E1,1.2E1,1E0,1E0,1.86E2,7.95E2,1.26E2,1.16E2,1.7E1,5.89E2,5.7E2,1.17E2,3.5E1],"tree_param":{"num_deleted":"0","num_feature":"8","num_nodes":"49","size_leaf_vector":"1"}},{"base_weights":[-1.5152493E0,-4.3418194E1,1.2440307E2,3.848258E1,7.230467E2,7.014121E1,-1.5828378E2,7.280608E2,-2.5613348E1,-8.67203E1,8.475401E1,-2.1663445E2,-1.3727437E1,7.174424E2,8.2539085E1,2.3303013E0,-1.4007683E1,7.1544504E0,2.533737E0,5.5839397E1,-1.1294331E1,-3.1449757E0,7.959639E1,4.2023983E1,3.3791588E1],"categories":[],"categories_nodes":[],"categories_segments":[],"categories_sizes":[],"default_left":[0,0,0,0,0,0,0,0,0,0,0,0,0,0,0,0,0,0,0,0,0,0,0,0,0],"id":15,"left_children":[1,-1,3,5,7,9,11,13,-1,15,17,19,21,23,-1,-1,-1,-1,-1,-1,-1,-1,-1,-1,-1],"loss_changes":[5.9466003E8,0E0,2.4465166E8,2.5931402E7,4.070912E6,8.224836E6,4.863883E6,4.644192E6,0E0,7.9048405E6,6.51334E6,5.322344E6,1.3284584E7,2.45184E6,0E0,0E0,0E0,0E0,0E0,0E0,0E0,0E0,0E0,0E0,0E0],"parents":[2147483647,0,0,2,2,3,3,4,4,5,5,6,6,7,7,9,9,10,10,11,11,12,12,13,13],"right_children":[2,-1,4,6,8,10,12,14,-1,16,18,20,22,24,-1,-1,-1,-1,-1,-1,-1,-1,-1,-1,-1],"split_conditions":[1E0,-4.3418194E1,3E0,2E0,1.7948441E-1,6.465E0,8.013136E-2,1.7404903E-1,-2.5613348E1,5.945E0,3.7201125E-2,5.15E0,2.05E1,2.5776993E-2,8.2539085E1,2.3303013E0,-1.4007683E1,7.1544504E0,2.533737E0,5.5839397E1,-1.1294331E1,-3.1449757E0,7.959639E1,4.2023983E1,3.3791588E1],"split_indices":[6,0,6,6,1,0,1,1,0,0,1,0,0,1,0,0,0,0,0,0,0,0,0,0,0],"split_type":[0,0,0,0,0,0,0,0,0,0,0,0,0,0,0,0,0,0,0,0,0,0,0,0,0],"sum_hessian":[5.446E3,6.9E2,4.756E3,4.16E3,5.96E2,3.584E3,5.76E2,5.94E2,2E0,3.05E2,3.279E3,4.1E2,1.66E2,5.89E2,5E0,1.81E2,1.24E2,1.208E3,2.071E3,2E0,4.08E2,1.62E2,4E0,1.44E2,4.45E2],"tree_param":{"num_deleted":"0","num_feature":"8","num_nodes":"25","size_leaf_vector":"1"}},{"base_weights":[8.882705E-1,-4.6842416E2,4.7940958E2,-7.9176154E2,-2.8130142E2,-7.5469214E2,6.640585E2,-8.8456433E2,-6.94377E2,-4.1924206E1,-1.9748347E2,-3.9124317E1,-6.6376105E2,4.8082593E2,1.1603127E3,-4.599026E1,-8.14256E2,-7.3269165E2,-3.7313577E2,-2.6128958E2,2.6976105E2,-8.6147463E-1,-6.709065E2,3.7625345E2,1.2299619E3,1.0423375E3,2.0241437E3,-4.1543655E1,-2.9598486E1,-4.6952938E1,-3.460532E1,-2.2907774E1,-8.644614E0,-1.7442236E1,-3.5310304E0,7.59206E0,2.5447887E1,-1.2409232E1,-3.389228E1,1.1645123E1,2.8959486E1,4.2454086E1,7.570419E1,5.6199562E1,2.8688452E1,1.1740043E2,8.040269E1],"categories":[],"categories_nodes":[],"categories_segments":[],"categories_sizes":[],"default_left":[0,0,0,0,0,0,0,0,0,0,0,0,0,0,0,0,0,0,0,0,0,0,0,0,0,0,0,0,0,0,0,0,0,0,0,0,0,0,0,0,0,0,0,0,0,0,0],"id":16,"left_children":[1,3,5,7,9,11,13,15,17,-1,19,-1,21,23,25,-1,27,29,31,33,35,-1,37,39,41,43,45,-1,-1,-1,-1,-1,-1,-1,-1,-1,-1,-1,-1,-1,-1,-1,-1,-1,-1,-1,-1],"loss_changes":[1.2250619E9,1.664041E8,6.1599277E8,8.503936E6,8.137542E7,3.69536E5,2.1312666E8,5.21216E5,5.843248E6,0E0,4.535651E7,0E0,3.99256E5,1.3412285E8,6.2398144E7,0E0,1.72312E5,3.059568E6,8.56828E5,2.2295088E7,5.084094E6,0E0,8.9436E4,4.37632E7,2.1438688E7,2.074176E7,6.329056E6,0E0,0E0,0E0,0E0,0E0,0E0,0E0,0E0,0E0,0E0,0E0,0E0,0E0,0E0,0E0,0E0,0E0,0E0,0E0,0E0],"parents":[2147483647,0,0,1,1,2,2,3,3,4,4,5,5,6,6,7,7,8,8,10,10,12,12,13,13,14,14,16,16,17,17,18,18,19,19,20,20,22,22,23,23,24,24,25,25,26,26],"right_children":[2,4,6,8,10,12,14,16,18,-1,20,-1,22,24,26,-1,28,30,32,34,36,-1,38,40,42,44,46,-1,-1,-1,-1,-1,-1,-1,-1,-1,-1,-1,-1,-1,-1,-1,-1,-1,-1,-1,-1],"split_conditions":[1.43447E2,8.0996E1,1E0,5.09666E1,1E0,2.187166E2,2.201798E2,4.51402E1,3E0,-4.1924206E1,3E0,-3.9124317E1,5.73E0,3E0,3E0,-4.599026E1,3E0,1E0,8.080402E-2,1.192782E2,7.403542E-2,-8.6147463E-1,2.201798E2,1.805976E2,1.713448E2,2E0,4.765803E-2,-4.1543655E1,-2.9598486E1,-4.6952938E1,-3.460532E1,-2.2907774E1,-8.644614E0,-1.7442236E1,-3.5310304E0,7.59206E0,2.5447887E1,-1.2409232E1,-3.389228E1,1.1645123E1,2.8959486E1,4.2454086E1,7.570419E1,5.6199562E1,2.8688452E1,1.1740043E2,8.040269E1],"split_indices":[2,2,6,2,6,2,2,2,6,0,6,0,0,6,6,0,6,6,1,2,1,0,2,2,2,6,1,0,0,0,0,0,0,0,0,0,0,0,0,0,0,0,0,0,0,0,0],"split_type":[0,0,0,0,0,0,0,0,0,0,0,0,0,0,0,0,0,0,0,0,0,0,0,0,0,0,0,0,0,0,0,0,0,0,0,0,0,0,0,0,0,0,0,0,0,0,0],"sum_hessian":[5.453E3,2.753E3,2.7E3,1.008E3,1.745E3,3.51E2,2.349E3,5.12E2,4.96E2,2.27E2,1.518E3,2.63E2,8.8E1,1.717E3,6.32E2,3.33E2,1.79E2,4.42E2,5.4E1,1.336E3,1.82E2,1E0,8.7E1,1.508E3,2.09E2,5.58E2,7.4E1,1.64E2,1.5E1,6.9E1,3.73E2,3.7E1,1.7E1,9.15E2,4.21E2,1.23E2,5.9E1,2E0,8.5E1,8.85E2,6.23E2,9.1E1,1.18E2,4.74E2,8.4E1,3.9E1,3.5E1],"tree_param":{"num_deleted":"0","num_feature":"8","num_nodes":"47","size_leaf_vector":"1"}},{"base_weights":[5.3089137E0,-4.38932E2,4.5383862E2,-7.386408E2,-2.4328983E2,2.4748181E2,8.5699286E2,-8.445757E2,-6.3636993E2,-3.0798743E2,-9.774972E1,9.854135E1,3.746213E2,4.4514413E2,1.0190316E3,-8.739408E2,-7.8507874E2,-6.906227E2,-5.316115E2,-4.0425177E2,-2.537048E2,-6.329002E1,-5.477828E2,2.5956342E2,-4.3220135E1,3.9392926E2,-6.0335345E2,-3.348916E1,7.773991E2,1.9296351E3,8.37045E2,-4.274462E1,-5.1066917E1,-3.6915264E1,-4.3325703E1,-2.8398392E1,-3.5918224E1,-2.0311913E1,-3.5289715E1,-1.5588031E1,-2.3708511E1,-1.2155993E1,-3.7135902E1,3.0347862E0,-7.0870156E0,-3.2040634E1,-9.8718E0,4.958033E0,2.3641487E1,5.766159E0,-7.9804416E0,2.082251E1,-2.2483837E1,-3.246078E1,-1.7249825E1,6.543611E1,3.0281263E1,1.1427388E2,7.001631E1,5.2201534E1,3.0599506E1],"categories":[],"categories_nodes":[],"categories_segments":[],"categories_sizes":[],"default_left":[0,0,0,0,0,0,0,0,0,0,0,0,0,0,0,0,0,0,0,0,0,0,0,0,0,0,0,0,0,0,0,0,0,0,0,0,0,0,0,0,0,0,0,0,0,0,0,0,0,0,0,0,0,0,0,0,0,0,0,0,0],"id":17,"left_children":[1,3,5,7,9,11,13,15,17,19,21,23,25,27,29,31,33,35,37,39,41,43,45,47,49,51,53,-1,55,57,59,-1,-1,-1,-1,-1,-1,-1,-1,-1,-1,-1,-1,-1,-1,-1,-1,-1,-1,-1,-1,-1,-1,-1,-1,-1,-1,-1,-1,-1,-1],"loss_changes":[1.0779708E9,1.5919155E8,2.2374464E8,1.108672E7,1.5468584E7,3.370719E7,6.034163E7,2.28576E5,2.758144E6,5.848936E6,7.843091E6,1.8774896E7,1.838384E7,9.6464744E7,1.0659706E8,8.6144E4,5.6488E4,8.12896E5,3.905596E6,2.496716E6,3.602728E6,4.609381E6,1.0464E6,1.31231E7,8.1006885E6,1.8103104E7,6.535E2,0E0,1.7459912E7,1.7139584E7,2.4794592E7,0E0,0E0,0E0,0E0,0E0,0E0,0E0,0E0,0E0,0E0,0E0,0E0,0E0,0E0,0E0,0E0,0E0,0E0,0E0,0E0,0E0,0E0,0E0,0E0,0E0,0E0,0E0,0E0,0E0,0E0],"parents":[2147483647,0,0,1,1,2,2,3,3,4,4,5,5,6,6,7,7,8,8,9,9,10,10,11,11,12,12,13,13,14,14,15,15,16,16,17,17,18,18,19,19,20,20,21,21,22,22,23,23,24,24,25,25,26,26,28,28,29,29,30,30],"right_children":[2,4,6,8,10,12,14,16,18,20,22,24,26,28,30,32,34,36,38,40,42,44,46,48,50,52,54,-1,56,58,60,-1,-1,-1,-1,-1,-1,-1,-1,-1,-1,-1,-1,-1,-1,-1,-1,-1,-1,-1,-1,-1,-1,-1,-1,-1,-1,-1,-1,-1,-1],"split_conditions":[1.43447E2,8.49224E1,2.061638E2,5.20324E1,1.20444E2,1.705422E2,1E0,4.51402E1,7.5467E1,9.85358E1,1.4699927E-1,4.4004675E-2,1.7948441E-1,1.987E3,1.987E3,2.009E3,1.465E1,1.987E3,1.31E1,1.998E3,1.8445404E-1,1.998E3,2.004E3,1.581604E2,1.544998E2,2.085E1,1.3E1,-3.348916E1,8.93E0,5.701106E-2,2E0,-4.274462E1,-5.1066917E1,-3.6915264E1,-4.3325703E1,-2.8398392E1,-3.5918224E1,-2.0311913E1,-3.5289715E1,-1.5588031E1,-2.3708511E1,-1.2155993E1,-3.7135902E1,3.0347862E0,-7.0870156E0,-3.2040634E1,-9.8718E0,4.958033E0,2.3641487E1,5.766159E0,-7.9804416E0,2.082251E1,-2.2483837E1,-3.246078E1,-1.7249825E1,6.543611E1,3.0281263E1,1.1427388E2,7.001631E1,5.2201534E1,3.0599506E1],"split_indices":[2,2,2,2,2,2,5,2,2,2,1,1,1,3,3,3,0,3,0,3,1,3,3,2,2,0,0,0,0,1,5,0,0,0,0,0,0,0,0,0,0,0,0,0,0,0,0,0,0,0,0,0,0,0,0,0,0,0,0,0,0],"split_type":[0,0,0,0,0,0,0,0,0,0,0,0,0,0,0,0,0,0,0,0,0,0,0,0,0,0,0,0,0,0,0,0,0,0,0,0,0,0,0,0,0,0,0,0,0,0,0,0,0,0,0,0,0,0,0,0,0,0,0,0,0],"sum_hessian":[5.408E3,2.717E3,2.691E3,1.072E3,1.645E3,1.781E3,9.1E2,5.23E2,5.49E2,1.138E3,5.07E2,8.21E2,9.6E2,2.58E2,6.52E2,3.41E2,1.82E2,3.58E2,1.91E2,4.08E2,7.3E2,4.72E2,3.5E1,3.84E2,4.37E2,9.42E2,1.8E1,5.9E1,1.99E2,1.07E2,5.45E2,3.08E2,3.3E1,1.22E2,6E1,7E1,2.88E2,1.13E2,7.8E1,1.78E2,2.3E2,7.16E2,1.4E1,1.83E2,2.89E2,2.7E1,8E0,2.2E2,1.64E2,1.85E2,2.52E2,9.18E2,2.4E1,1.4E1,4E0,4.7E1,1.52E2,6.2E1,4.5E1,2.82E2,2.63E2],"tree_param":{"num_deleted":"0","num_feature":"8","num_nodes":"61","size_leaf_vector":"1"}},{"base_weights":[-4.107152E0,-4.2829593E2,4.2039325E2,-6.5371545E2,-2.2496402E2,-7.0936017E2,5.8873047E2,-7.6282104E2,-5.1056348E2,-3.8211193E1,-1.4780919E2,-3.7993862E1,-3.2652737E1,3.8554697E2,9.4805066E2,-7.9146106E2,-5.3781305E2,-5.5199536E2,-1.3234457E2,2.365258E2,-1.9873763E2,9.863459E2,2.985902E2,1.9153878E3,8.2096136E2,-4.429503E1,-3.8559086E1,-3.515497E1,-5.318528E0,-4.2397293E1,-2.5255424E1,-1.2858612E1,1.5494657E1,-7.241227E0,1.7148935E1,-1.4295768E1,-4.149683E0,3.7286392E1,6.047641E1,7.6751657E0,2.1438124E1,1.1638051E2,6.62199E1,3.0678114E1,4.6753437E1],"categories":[],"categories_nodes":[],"categories_segments":[],"categories_sizes":[],"default_left":[0,0,0,0,0,0,0,0,0,0,0,0,0,0,0,0,0,0,0,0,0,0,0,0,0,0,0,0,0,0,0,0,0,0,0,0,0,0,0,0,0,0,0,0,0],"id":18,"left_children":[1,3,5,7,9,11,13,15,17,-1,19,-1,-1,21,23,25,27,29,31,33,35,37,39,41,43,-1,-1,-1,-1,-1,-1,-1,-1,-1,-1,-1,-1,-1,-1,-1,-1,-1,-1,-1,-1],"loss_changes":[9.8497363E8,1.2525696E8,5.2036835E8,1.9867328E7,5.9799944E7,5.12816E5,1.7339277E8,4.303744E6,8.764672E6,0E0,2.4729268E7,0E0,0E0,7.92195E7,1.0403002E8,5.58912E5,6.057598E6,6.620128E6,3.226269E6,6.0579565E6,1.121668E7,9.40776E6,2.5071536E7,2.1033792E7,1.7435168E7,0E0,0E0,0E0,0E0,0E0,0E0,0E0,0E0,0E0,0E0,0E0,0E0,0E0,0E0,0E0,0E0,0E0,0E0,0E0,0E0],"parents":[2147483647,0,0,1,1,2,2,3,3,4,4,5,5,6,6,7,7,8,8,10,10,13,13,14,14,15,15,16,16,17,17,18,18,19,19,20,20,21,21,22,22,23,23,24,24],"right_children":[2,4,6,8,10,12,14,16,18,-1,20,-1,-1,22,24,26,28,30,32,34,36,38,40,42,44,-1,-1,-1,-1,-1,-1,-1,-1,-1,-1,-1,-1,-1,-1,-1,-1,-1,-1,-1,-1],"split_conditions":[1.429154E2,9.12146E1,1E0,5.97536E1,1E0,1.85224E2,1.993426E2,3E0,3E0,-3.8211193E1,1.987E3,-3.7993862E1,-3.2652737E1,1.987E3,1.987E3,1E0,5.20324E1,1E0,8.70856E1,2.1619564E-2,1.165466E2,1.72108E2,1.705422E2,5.669573E-2,2.284352E2,-4.429503E1,-3.8559086E1,-3.515497E1,-5.318528E0,-4.2397293E1,-2.5255424E1,-1.2858612E1,1.5494657E1,-7.241227E0,1.7148935E1,-1.4295768E1,-4.149683E0,3.7286392E1,6.047641E1,7.6751657E0,2.1438124E1,1.1638051E2,6.62199E1,3.0678114E1,4.6753437E1],"split_indices":[2,2,6,2,6,2,2,6,6,0,3,0,0,3,3,6,2,6,2,1,2,2,2,1,2,0,0,0,0,0,0,0,0,0,0,0,0,0,0,0,0,0,0,0,0],"split_type":[0,0,0,0,0,0,0,0,0,0,0,0,0,0,0,0,0,0,0,0,0,0,0,0,0,0,0,0,0,0,0,0,0,0,0,0,0,0,0,0,0,0,0,0,0],"sum_hessian":[5.468E3,2.735E3,2.733E3,1.296E3,1.439E3,3.54E2,2.379E3,7.33E2,5.63E2,1.79E2,1.26E3,1.8E2,1.74E2,1.521E3,8.58E2,6.48E2,8.5E1,5.07E2,5.6E1,1.47E2,1.113E3,1.91E2,1.33E3,9.8E1,7.6E2,1.07E2,5.41E2,6.1E1,2.4E1,6.7E1,4.4E2,4.4E1,1.2E1,3.2E1,1.15E2,6.34E2,4.79E2,9.4E1,9.7E1,6.3E2,7E2,5.6E1,4.2E1,2.72E2,4.88E2],"tree_param":{"num_deleted":"0","num_feature":"8","num_nodes":"45","size_leaf_vector":"1"}},{"base_weights":[7.2245646E-1,-3.1743338E2,5.033754E2,-5.708669E2,-1.14103775E2,7.472024E2,3.0929523E2,-7.0309436E2,-3.9939532E2,-1.9534467E2,2.5639889E1,1.3719619E3,5.3038226E2,-1.2821341E2,6.1872253E2,-7.690435E2,-5.9650336E2,-3.6614886E2,-5.142403E2,-6.19179E1,-2.9835257E2,-1.6391463E2,1.0424106E2,8.9676135E2,1.7411709E3,3.9347238E2,9.0568E2,9.84857E1,-3.4621483E1,4.1901947E2,8.717452E2,-4.0108974E1,-3.5850258E1,-2.2818604E1,-3.1495375E1,-2.4350512E1,-1.5544316E1,-3.1406637E1,-2.0129799E1,1.7947248E1,-9.884841E0,-1.1915106E1,-3.749596E1,-3.627117E1,2.436597E0,3.0281525E1,1.3703265E0,4.6361923E1,1.1455318E1,7.359169E1,9.904672E1,2.6473545E1,9.640563E0,-5.0542517E0,4.8189495E1,-3.1548635E1,2.4914297E1,8.37184E0,2.6573069E1,4.463838E1,-1.5878688E1],"categories":[],"categories_nodes":[],"categories_segments":[],"categories_sizes":[],"default_left":[0,0,0,0,0,0,0,0,0,0,0,0,0,0,0,0,0,0,0,0,0,0,0,0,0,0,0,0,0,0,0,0,0,0,0,0,0,0,0,0,0,0,0,0,0,0,0,0,0,0,0,0,0,0,0,0,0,0,0,0,0],"id":19,"left_children":[1,3,5,7,9,11,13,15,17,19,21,23,25,27,29,31,33,35,37,39,41,43,45,47,49,51,53,55,-1,57,59,-1,-1,-1,-1,-1,-1,-1,-1,-1,-1,-1,-1,-1,-1,-1,-1,-1,-1,-1,-1,-1,-1,-1,-1,-1,-1,-1,-1,-1,-1],"loss_changes":[8.7013555E8,1.7163427E8,9.957046E7,3.334304E7,2.1007956E7,1.2579142E8,1.5928307E8,5.417344E6,2.285464E6,1.606184E7,1.0163416E7,4.0544864E7,3.535347E7,6.248727E7,3.444883E7,3.0864E5,1.228624E6,3.227824E6,1.564908E6,2.9271618E7,1.7717884E7,2.3916274E7,1.8551664E7,1.964248E6,5.736032E6,1.3842544E7,1.0920912E7,1.0209587E8,0E0,1.0858296E7,7.859504E6,0E0,0E0,0E0,0E0,0E0,0E0,0E0,0E0,0E0,0E0,0E0,0E0,0E0,0E0,0E0,0E0,0E0,0E0,0E0,0E0,0E0,0E0,0E0,0E0,0E0,0E0,0E0,0E0,0E0,0E0],"parents":[2147483647,0,0,1,1,2,2,3,3,4,4,5,5,6,6,7,7,8,8,9,9,10,10,11,11,12,12,13,13,14,14,15,15,16,16,17,17,18,18,19,19,20,20,21,21,22,22,23,23,24,24,25,25,26,26,27,27,29,29,30,30],"right_children":[2,4,6,8,10,12,14,16,18,20,22,24,26,28,30,32,34,36,38,40,42,44,46,48,50,52,54,56,-1,58,60,-1,-1,-1,-1,-1,-1,-1,-1,-1,-1,-1,-1,-1,-1,-1,-1,-1,-1,-1,-1,-1,-1,-1,-1,-1,-1,-1,-1,-1,-1],"split_conditions":[1.617578E2,9.85358E1,2E0,6.66142E1,1.411496E2,1.987E3,1.999E3,5.20324E1,1.685E1,2E0,1E0,1.89853E2,2.284352E2,1.998E3,1.993426E2,4.42428E1,1.987E3,1E0,1.86E1,1.987E3,2E0,1.987E3,1.987E3,1.88753E2,2.26172E2,1.485E1,6.32E0,1.987E3,-3.4621483E1,2.004E3,2.07E1,-4.0108974E1,-3.5850258E1,-2.2818604E1,-3.1495375E1,-2.4350512E1,-1.5544316E1,-3.1406637E1,-2.0129799E1,1.7947248E1,-9.884841E0,-1.1915106E1,-3.749596E1,-3.627117E1,2.436597E0,3.0281525E1,1.3703265E0,4.6361923E1,1.1455318E1,7.359169E1,9.904672E1,2.6473545E1,9.640563E0,-5.0542517E0,4.8189495E1,-3.1548635E1,2.4914297E1,8.37184E0,2.6573069E1,4.463838E1,-1.5878688E1],"split_indices":[2,2,4,2,2,3,3,2,0,4,5,2,2,3,2,2,3,5,0,3,5,3,3,2,2,0,0,3,0,3,0,0,0,0,0,0,0,0,0,0,0,0,0,0,0,0,0,0,0,0,0,0,0,0,0,0,0,0,0,0,0],"split_type":[0,0,0,0,0,0,0,0,0,0,0,0,0,0,0,0,0,0,0,0,0,0,0,0,0,0,0,0,0,0,0,0,0,0,0,0,0,0,0,0,0,0,0,0,0,0,0,0,0,0,0,0,0,0,0,0,0,0,0,0,0],"sum_hessian":[5.439E3,3.331E3,2.108E3,1.482E3,1.849E3,9.33E2,1.175E3,8.35E2,6.47E2,1.169E3,6.8E2,2.39E2,6.94E2,4.87E2,6.88E2,5.12E2,3.23E2,5.05E2,1.42E2,5.1E2,6.59E2,1.99E2,4.81E2,1.06E2,1.33E2,5.1E2,1.84E2,3.48E2,1.39E2,3.86E2,3.02E2,3.04E2,2.08E2,6.5E1,2.58E2,1.56E2,3.49E2,6.8E1,7.4E1,1.24E2,3.86E2,5.83E2,7.6E1,5.4E1,1.45E2,6.3E1,4.18E2,1.01E2,5E0,6.6E1,6.7E1,3.03E2,2.07E2,1E1,1.74E2,1.23E2,2.25E2,1.2E2,2.66E2,2.97E2,5E0],"tree_param":{"num_deleted":"0","num_feature":"8","num_nodes":"61","size_leaf_vector":"1"}},{"base_weights":[2.8969297E0,-3.883945E2,3.9304083E2,-6.568775E2,-2.4663177E2,1.6653928E2,5.856459E2,-7.2344196E2,-5.648091E2,-3.4658386E2,-1.4640263E2,3.605553E2,2.4404905E1,8.484596E2,3.8038828E2,-7.513471E2,-6.71163E2,-4.3002362E2,-5.926726E2,-3.149926E2,-4.7512994E2,-2.081248E1,-2.5033115E2,7.590563E2,2.145343E2,-3.522788E2,2.815757E2,1.4320648E3,6.549774E2,5.1076932E2,-6.5833325E2,-3.6631023E1,-4.481326E1,-2.3700012E1,-3.406661E1,-1.2301652E1,-3.830323E1,-2.670668E1,-3.6039764E1,-2.2539694E1,-1.2941612E1,-3.0825632E1,-1.795951E1,1.8467163E1,-6.126458E0,-9.000365E0,-3.567031E1,3.213094E1,5.1048805E1,5.3398967E0,2.1970804E1,-1.0925835E1,-3.5148556E1,3.076039E0,2.0286495E1,4.704054E1,7.668151E1,2.5417707E1,5.4005085E1,-2.75595E1,3.3049286E1,-1.7687582E1,-3.376335E1],"categories":[],"categories_nodes":[],"categories_segments":[],"categories_sizes":[],"default_left":[0,0,0,0,0,0,0,0,0,0,0,0,0,0,0,0,0,0,0,0,0,0,0,0,0,0,0,0,0,0,0,0,0,0,0,0,0,0,0,0,0,0,0,0,0,0,0,0,0,0,0,0,0,0,0,0,0,0,0,0,0,0,0],"id":20,"left_children":[1,3,5,7,9,11,13,15,17,19,21,23,25,27,29,31,33,35,37,39,41,43,45,47,49,51,53,55,57,59,61,-1,-1,-1,-1,-1,-1,-1,-1,-1,-1,-1,-1,-1,-1,-1,-1,-1,-1,-1,-1,-1,-1,-1,-1,-1,-1,-1,-1,-1,-1,-1,-1],"loss_changes":[8.3230214E8,1.0343926E8,1.1899923E8,5.35152E6,1.7811304E7,3.4626904E7,7.92448E7,2.85696E5,1.243112E6,3.472288E6,1.1637394E7,3.0735296E7,7.0428264E7,7.200554E7,1.1274276E8,2.78832E5,7.3456E4,4.262659E6,2.074424E6,5.366536E6,2.630256E6,1.6117697E7,1.5762958E7,3.67368E6,9.401698E6,1.3684184E7,1.1777368E7,6.539008E6,2.9806352E7,1.1809285E8,2.40272E5,0E0,0E0,0E0,0E0,0E0,0E0,0E0,0E0,0E0,0E0,0E0,0E0,0E0,0E0,0E0,0E0,0E0,0E0,0E0,0E0,0E0,0E0,0E0,0E0,0E0,0E0,0E0,0E0,0E0,0E0,0E0,0E0],"parents":[2147483647,0,0,1,1,2,2,3,3,4,4,5,5,6,6,7,7,8,8,9,9,10,10,11,11,12,12,13,13,14,14,15,15,16,16,17,17,18,18,19,19,20,20,21,21,22,22,23,23,24,24,25,25,26,26,27,27,28,28,29,29,30,30],"right_children":[2,4,6,8,10,12,14,16,18,20,22,24,26,28,30,32,34,36,38,40,42,44,46,48,50,52,54,56,58,60,62,-1,-1,-1,-1,-1,-1,-1,-1,-1,-1,-1,-1,-1,-1,-1,-1,-1,-1,-1,-1,-1,-1,-1,-1,-1,-1,-1,-1,-1,-1,-1,-1],"split_conditions":[1.429154E2,7.6467E1,1.818608E2,5.20324E1,1.085912E2,2E0,2E0,4.51402E1,1.987E3,1.685E1,2E0,1.987E3,1.999E3,1.987E3,2E0,2.009E3,6.385E0,2E0,2E0,1E0,1.86E1,1.987E3,2E0,1.72108E2,1.697448E2,1.998E3,1.0195E1,1.89853E2,2.441486E2,1.987E3,6.15E0,-3.6631023E1,-4.481326E1,-2.3700012E1,-3.406661E1,-1.2301652E1,-3.830323E1,-2.670668E1,-3.6039764E1,-2.2539694E1,-1.2941612E1,-3.0825632E1,-1.795951E1,1.8467163E1,-6.126458E0,-9.000365E0,-3.567031E1,3.213094E1,5.1048805E1,5.3398967E0,2.1970804E1,-1.0925835E1,-3.5148556E1,3.076039E0,2.0286495E1,4.704054E1,7.668151E1,2.5417707E1,5.4005085E1,-2.75595E1,3.3049286E1,-1.7687582E1,-3.376335E1],"split_indices":[2,2,2,2,2,4,4,2,3,0,4,3,3,3,5,3,0,4,5,5,0,3,5,2,2,3,0,2,2,3,0,0,0,0,0,0,0,0,0,0,0,0,0,0,0,0,0,0,0,0,0,0,0,0,0,0,0,0,0,0,0,0,0],"split_type":[0,0,0,0,0,0,0,0,0,0,0,0,0,0,0,0,0,0,0,0,0,0,0,0,0,0,0,0,0,0,0,0,0,0,0,0,0,0,0,0,0,0,0,0,0,0,0,0,0,0,0,0,0,0,0,0,0,0,0,0,0,0,0],"sum_hessian":[5.45E3,2.721E3,2.729E3,9.39E2,1.782E3,1.255E3,1.474E3,5.41E2,3.98E2,8.91E2,8.91E2,5.3E2,7.25E2,6.45E2,8.29E2,3.44E2,1.97E2,7.1E1,3.27E2,7.18E2,1.73E2,4.04E2,4.87E2,1.41E2,3.89E2,2.94E2,4.31E2,1.59E2,4.86E2,7.37E2,9.2E1,3.1E2,3.4E1,1.2E1,1.85E2,4.7E1,2.4E1,2.28E2,9.9E1,2.08E2,5.1E2,7.6E1,9.7E1,8.3E1,3.21E2,4.24E2,6.3E1,1E2,4.1E1,2.64E2,1.25E2,2.14E2,8E1,1.56E2,2.75E2,2.9E1,1.3E2,3.63E2,1.23E2,9.1E1,6.46E2,6E0,8.6E1],"tree_param":{"num_deleted":"0","num_feature":"8","num_nodes":"63","size_leaf_vector":"1"}},{"base_weights":[-1.3252129E1,-3.6972678E2,3.496024E2,-6.001177E2,-2.1874446E2,-6.252604E2,4.950981E2,-6.651675E2,-4.696179E2,-3.5201767E1,-1.498882E2,-3.3859615E1,-5.65276E2,1.145925E3,4.0228958E2,-7.2462897E2,-6.083778E2,-5.126818E2,-1.0904732E2,2.4391676E2,-2.0281308E2,-5.116984E2,-6.115671E2,9.619357E2,1.7239425E3,2.7167517E2,7.860584E2,-3.541943E1,-4.205492E1,-3.172882E1,-1.9005215E1,-3.7225864E1,-2.3727695E1,-1.2367892E1,2.8407362E0,4.5699115E0,1.9947142E1,-1.6085493E1,-4.5935435E0,-9.137207E-1,-2.648708E1,-1.692954E1,-3.140036E1,3.8369854E1,5.7060303E1,1.00821815E2,5.971255E1,5.2148943E0,1.8010075E1,6.0089855E1,3.5377934E1],"categories":[],"categories_nodes":[],"categories_segments":[],"categories_sizes":[],"default_left":[0,0,0,0,0,0,0,0,0,0,0,0,0,0,0,0,0,0,0,0,0,0,0,0,0,0,0,0,0,0,0,0,0,0,0,0,0,0,0,0,0,0,0,0,0,0,0,0,0,0,0],"id":21,"left_children":[1,3,5,7,9,11,13,15,17,-1,19,-1,21,23,25,27,29,31,33,35,37,39,41,43,45,47,49,-1,-1,-1,-1,-1,-1,-1,-1,-1,-1,-1,-1,-1,-1,-1,-1,-1,-1,-1,-1,-1,-1,-1,-1],"loss_changes":[7.005511E8,9.49008E7,3.8100365E8,8.863648E6,5.509615E7,7.03744E5,1.4063802E8,1.986432E6,5.580296E6,0E0,3.0228778E7,0E0,1.03164E5,2.9287904E7,1.0234317E8,5.7856E4,1.994976E6,2.510048E6,9.317675E5,4.03012E6,1.6814724E7,7.37894E5,1.68338E5,6.900416E6,8.280544E6,2.2603024E7,1.6086464E7,0E0,0E0,0E0,0E0,0E0,0E0,0E0,0E0,0E0,0E0,0E0,0E0,0E0,0E0,0E0,0E0,0E0,0E0,0E0,0E0,0E0,0E0,0E0,0E0],"parents":[2147483647,0,0,1,1,2,2,3,3,4,4,5,5,6,6,7,7,8,8,10,10,12,12,13,13,14,14,15,15,16,16,17,17,18,18,19,19,20,20,21,21,22,22,23,23,24,24,25,25,26,26],"right_children":[2,4,6,8,10,12,14,16,18,-1,20,-1,22,24,26,28,30,32,34,36,38,40,42,44,46,48,50,-1,-1,-1,-1,-1,-1,-1,-1,-1,-1,-1,-1,-1,-1,-1,-1,-1,-1,-1,-1,-1,-1,-1,-1],"split_conditions":[1.43447E2,8.49224E1,1E0,5.97536E1,1E0,1.85224E2,1.987E3,4.51402E1,3E0,-3.5201767E1,1.987E3,-3.3859615E1,1.987E3,2.26172E2,2.246088E2,2.009E3,3E0,1E0,1E0,1.092228E2,1.098228E2,1.865924E2,6.15E0,1.774686E2,2.51904E2,1.659526E2,1.997E3,-3.541943E1,-4.205492E1,-3.172882E1,-1.9005215E1,-3.7225864E1,-2.3727695E1,-1.2367892E1,2.8407362E0,4.5699115E0,1.9947142E1,-1.6085493E1,-4.5935435E0,-9.137207E-1,-2.648708E1,-1.692954E1,-3.140036E1,3.8369854E1,5.7060303E1,1.00821815E2,5.971255E1,5.2148943E0,1.8010075E1,6.0089855E1,3.5377934E1],"split_indices":[2,2,6,2,6,2,3,2,6,0,3,0,3,2,2,3,6,6,7,2,2,2,0,2,2,2,3,0,0,0,0,0,0,0,0,0,0,0,0,0,0,0,0,0,0,0,0,0,0,0,0],"split_type":[0,0,0,0,0,0,0,0,0,0,0,0,0,0,0,0,0,0,0,0,0,0,0,0,0,0,0,0,0,0,0,0,0,0,0,0,0,0,0,0,0,0,0,0,0,0,0,0,0,0,0],"sum_hessian":[5.414E3,2.731E3,2.683E3,1.08E3,1.651E3,3.48E2,2.335E3,7.18E2,3.62E2,2.04E2,1.447E3,1.81E2,1.67E2,2.9E2,2.045E3,3.45E2,3.73E2,3.23E2,3.9E1,1.71E2,1.276E3,8.3E1,8.4E1,2.22E2,6.8E1,1.527E3,5.18E2,3.09E2,3.6E1,3.33E2,4E1,4.3E1,2.8E2,2.1E1,1.8E1,8.7E1,8.4E1,6.15E2,6.61E2,3E0,8E1,6E0,7.8E1,1.09E2,1.13E2,4.2E1,2.6E1,5.29E2,9.98E2,8E1,4.38E2],"tree_param":{"num_deleted":"0","num_feature":"8","num_nodes":"51","size_leaf_vector":"1"}},{"base_weights":[1.53897295E1,1.458415E2,-8.460975E1,5.494279E2,1.2976275E1,-1.117381E1,-3.2591373E1,5.281881E2,1.092669E3,8.652699E1,-1.3602914E2,-3.156108E1,7.826567E1,5.3785443E2,-4.5872565E2,1.1761559E3,-1.4414252E1,-1.5950328E2,1.0564911E2,-1.4252179E2,9.154186E1,2.4666348E1,1.3068466E2,1.7096172E1,2.7823246E1,-2.568335E0,-3.2471924E1,4.2624325E1,9.882835E1,9.777606E0,-1.4611931E1,1.0954133E1,3.419635E0,-8.712825E0,5.7014446E0,-2.3784225E0,8.228614E0,1.4943741E1,4.3212886E0],"categories":[],"categories_nodes":[],"categories_segments":[],"categories_sizes":[],"default_left":[0,0,0,0,0,0,0,0,0,0,0,0,0,0,0,0,0,0,0,0,0,0,0,0,0,0,0,0,0,0,0,0,0,0,0,0,0,0,0],"id":22,"left_children":[1,3,5,7,9,11,-1,13,15,17,19,-1,21,23,25,27,-1,29,31,33,-1,35,37,-1,-1,-1,-1,-1,-1,-1,-1,-1,-1,-1,-1,-1,-1,-1,-1],"loss_changes":[7.076905E7,1.26220184E8,1.2791232E8,6.148896E6,1.94319E7,1.5089206E8,0E0,5.61768E6,2.760636E6,5.601208E6,7.743419E6,0E0,6.677981E6,1.843968E6,4.3242138E5,3.494962E6,0E0,4.1102382E6,4.642063E6,4.782711E6,0E0,1.1902738E7,8.921558E6,0E0,0E0,0E0,0E0,0E0,0E0,0E0,0E0,0E0,0E0,0E0,0E0,0E0,0E0,0E0,0E0],"parents":[2147483647,0,0,1,1,2,2,3,3,4,4,5,5,7,7,8,8,9,9,10,10,12,12,13,13,14,14,15,15,17,17,18,18,19,19,21,21,22,22],"right_children":[2,4,6,8,10,12,-1,14,16,18,20,-1,22,24,26,28,-1,30,32,34,-1,36,38,-1,-1,-1,-1,-1,-1,-1,-1,-1,-1,-1,-1,-1,-1,-1,-1],"split_conditions":[2E0,1.987E3,2E0,1.5146782E-1,2.002E3,1.987E3,-3.2591373E1,1.4492016E-1,1.7948441E-1,6.385E0,2.135E1,-3.156108E1,2.004E3,1.0055503E-2,1E0,1.7404903E-1,-1.4414252E1,5.48E0,2.5776993E-2,1.2762082E-1,9.154186E1,1E0,2.2694623E-2,1.7096172E1,2.7823246E1,-2.568335E0,-3.2471924E1,4.2624325E1,9.882835E1,9.777606E0,-1.4611931E1,1.0954133E1,3.419635E0,-8.712825E0,5.7014446E0,-2.3784225E0,8.228614E0,1.4943741E1,4.3212886E0],"split_indices":[4,3,5,1,3,3,0,1,1,0,0,0,3,1,7,1,0,0,1,1,0,7,1,0,0,0,0,0,0,0,0,0,0,0,0,0,0,0,0],"split_type":[0,0,0,0,0,0,0,0,0,0,0,0,0,0,0,0,0,0,0,0,0,0,0,0,0,0,0,0,0,0,0,0,0,0,0,0,0,0,0],"sum_hessian":[5.423E3,2.353E3,3.07E3,5.82E2,1.771E3,2.719E3,3.51E2,5.62E2,2E1,1.186E3,5.85E2,3.42E2,2.377E3,5.57E2,5E0,1.9E1,1E0,8.5E1,1.101E3,5.84E2,1E0,1.176E3,1.201E3,5E1,5.07E2,2E0,3E0,1.5E1,4E0,2.3E1,6.2E1,2.71E2,8.3E2,5.2E2,6.4E1,7.76E2,4E2,2.49E2,9.52E2],"tree_param":{"num_deleted":"0","num_feature":"8","num_nodes":"39","size_leaf_vector":"1"}},{"base_weights":[7.5288663E0,-2.6259467E2,4.76794E2,-5.1303424E2,-9.526801E1,6.9989746E2,3.0339563E2,-6.035175E2,-3.6371524E2,-1.9529604E2,5.7195272E0,1.3043956E3,5.124318E2,-8.389799E1,5.8508514E2,-6.838692E2,-5.503298E2,-2.9043454E2,-4.6465268E2,-1.2703725E2,-2.4866037E2,1.0051175E2,-6.431161E1,6.2440735E2,1.4544828E3,4.1697253E2,9.362294E2,1.02299446E2,-5.68508E2,4.1294327E2,8.584535E2,-3.3364582E1,-4.0265404E1,-2.2791016E1,-2.8629633E1,-2.4521431E1,-9.524062E0,-2.7579157E1,-2.097621E1,7.840339E0,-1.0982851E1,-2.1038246E1,-6.854139E0,2.6441483E1,-1.8296407E0,6.15781E-1,-3.116149E1,3.526236E1,-2.9029346E1,6.6042625E1,9.8055565E1,2.1705523E1,-1.6017714E1,6.0704914E1,1.6811657E1,-2.5277308E1,2.048796E1,-2.910415E1,-1.831104E1,5.8874173E0,2.7922754E1,4.46716E1,-3.593292E1],"categories":[],"categories_nodes":[],"categories_segments":[],"categories_sizes":[],"default_left":[0,0,0,0,0,0,0,0,0,0,0,0,0,0,0,0,0,0,0,0,0,0,0,0,0,0,0,0,0,0,0,0,0,0,0,0,0,0,0,0,0,0,0,0,0,0,0,0,0,0,0,0,0,0,0,0,0,0,0,0,0,0,0],"id":23,"left_children":[1,3,5,7,9,11,13,15,17,19,21,23,25,27,29,31,33,35,37,39,41,43,45,47,49,51,53,55,57,59,61,-1,-1,-1,-1,-1,-1,-1,-1,-1,-1,-1,-1,-1,-1,-1,-1,-1,-1,-1,-1,-1,-1,-1,-1,-1,-1,-1,-1,-1,-1,-1,-1],"loss_changes":[6.932466E8,1.454038E8,7.708134E7,1.856016E7,2.1032708E7,9.826134E7,1.2289204E8,3.31552E6,3.76276E6,3.778368E6,6.89051E6,2.0114624E7,2.6633152E7,4.2919132E7,3.03268E7,1.46352E5,8.4312E5,6.063184E6,6.3118E5,1.2153968E7,1.1195008E7,2.591703E7,2.5576508E7,4.208572E6,8.78176E6,7.051144E6,1.9930888E7,6.4496596E7,1.48836E5,1.7201544E7,1.4488576E7,0E0,0E0,0E0,0E0,0E0,0E0,0E0,0E0,0E0,0E0,0E0,0E0,0E0,0E0,0E0,0E0,0E0,0E0,0E0,0E0,0E0,0E0,0E0,0E0,0E0,0E0,0E0,0E0,0E0,0E0,0E0,0E0],"parents":[2147483647,0,0,1,1,2,2,3,3,4,4,5,5,6,6,7,7,8,8,9,9,10,10,11,11,12,12,13,13,14,14,15,15,16,16,17,17,18,18,19,19,20,20,21,21,22,22,23,23,24,24,25,25,26,26,27,27,28,28,29,29,30,30],"right_children":[2,4,6,8,10,12,14,16,18,20,22,24,26,28,30,32,34,36,38,40,42,44,46,48,50,52,54,56,58,60,62,-1,-1,-1,-1,-1,-1,-1,-1,-1,-1,-1,-1,-1,-1,-1,-1,-1,-1,-1,-1,-1,-1,-1,-1,-1,-1,-1,-1,-1,-1,-1,-1],"split_conditions":[1.659526E2,9.48436E1,2E0,6.66142E1,1.256046E2,1.987E3,1.999E3,4.51402E1,1.315E1,2E0,2E0,1.77037E2,2.457802E2,1.998E3,2.155218E2,2.009E3,1.987E3,1E0,8.0996E1,1.987E3,1.999E3,1.987E3,2E0,1.76437E2,2.471092E2,2.085E1,2.002E3,1.987E3,2.531014E2,2.004E3,2.075E1,-3.3364582E1,-4.0265404E1,-2.2791016E1,-2.8629633E1,-2.4521431E1,-9.524062E0,-2.7579157E1,-2.097621E1,7.840339E0,-1.0982851E1,-2.1038246E1,-6.854139E0,2.6441483E1,-1.8296407E0,6.15781E-1,-3.116149E1,3.526236E1,-2.9029346E1,6.6042625E1,9.8055565E1,2.1705523E1,-1.6017714E1,6.0704914E1,1.6811657E1,-2.5277308E1,2.048796E1,-2.910415E1,-1.831104E1,5.8874173E0,2.7922754E1,4.46716E1,-3.593292E1],"split_indices":[2,2,4,2,2,3,3,2,0,4,4,2,2,3,2,3,3,5,2,3,3,3,5,2,2,0,3,3,2,3,0,0,0,0,0,0,0,0,0,0,0,0,0,0,0,0,0,0,0,0,0,0,0,0,0,0,0,0,0,0,0,0,0],"split_type":[0,0,0,0,0,0,0,0,0,0,0,0,0,0,0,0,0,0,0,0,0,0,0,0,0,0,0,0,0,0,0,0,0,0,0,0,0,0,0,0,0,0,0,0,0,0,0,0,0,0,0,0,0,0,0,0,0,0,0,0,0,0,0],"sum_hessian":[5.467E3,3.47E3,1.997E3,1.389E3,2.081E3,8.72E2,1.125E3,8.63E2,5.26E2,1.045E3,1.036E3,2.05E2,6.67E2,4.74E2,6.51E2,3.39E2,5.24E2,3.07E2,2.19E2,4.6E2,5.85E2,4.4E2,5.96E2,3.8E1,1.67E2,5.46E2,1.21E2,3.43E2,1.31E2,4.01E2,2.5E2,3.04E2,3.5E1,1.04E2,4.2E2,1.01E2,2.06E2,7.1E1,1.48E2,1.13E2,3.47E2,2.29E2,3.56E2,1.06E2,3.34E2,5.25E2,7.1E1,3.6E1,2E0,1.35E2,3.2E1,5.34E2,1.2E1,8.2E1,3.9E1,1.15E2,2.28E2,1.21E2,1E1,1.33E2,2.68E2,2.45E2,5E0],"tree_param":{"num_deleted":"0","num_feature":"8","num_nodes":"63","size_leaf_vector":"1"}},{"base_weights":[4.7910957E0,-2.9721577E1,9.4122375E1,4.6862534E2,3.8859783E1,4.2102213E2,6.2187585E2,6.699146E1,-1.2866669E2,4.3938425E2,-3.1178192E2,1.4688104E2,5.159135E2,2.8068243E1,1.4350555E2,-1.8019162E2,6.074926E0,2.1217905E1,7.477679E1,1.9247437E-2,-2.0796795E1,4.3696846E1,1.9923681E1,2.7652717E0,-5.5442414E0,8.702456E0,-1.6171941E-1,-7.8052697E0,-2.9927856E1,-1.9279112E1,6.934402E0],"categories":[],"categories_nodes":[],"categories_segments":[],"categories_sizes":[],"default_left":[0,0,0,0,0,0,0,0,0,0,0,0,0,0,0,0,0,0,0,0,0,0,0,0,0,0,0,0,0,0,0],"id":24,"left_children":[1,-1,3,5,7,9,11,13,15,17,19,-1,21,23,25,27,29,-1,-1,-1,-1,-1,-1,-1,-1,-1,-1,-1,-1,-1,-1],"loss_changes":[2.908805E8,0E0,9.785294E7,4.173152E6,1.9434756E7,6.420928E6,3.332694E7,1.0508842E7,4.118115E6,6.601064E6,3.9052888E5,0E0,5.411456E6,8.866066E6,5.334186E6,4.229155E6,8.623266E6,0E0,0E0,0E0,0E0,0E0,0E0,0E0,0E0,0E0,0E0,0E0,0E0,0E0,0E0],"parents":[2147483647,0,0,2,2,3,3,4,4,5,5,6,6,7,7,8,8,9,9,10,10,12,12,13,13,14,14,15,15,16,16],"right_children":[2,-1,4,6,8,10,12,14,16,18,20,-1,22,24,26,28,30,-1,-1,-1,-1,-1,-1,-1,-1,-1,-1,-1,-1,-1,-1],"split_conditions":[1E0,-2.9721577E1,1.987E3,8.812134E-2,2.009E3,8.539243E-2,8.907834E-2,2.004E3,8.013136E-2,8.2526475E-2,8.636096E-2,1.4688104E2,9.972989E-2,1.835E1,1.05498195E-1,7.46272E-2,8.18E0,2.1217905E1,7.477679E1,1.9247437E-2,-2.0796795E1,4.3696846E1,1.9923681E1,2.7652717E0,-5.5442414E0,8.702456E0,-1.6171941E-1,-7.8052697E0,-2.9927856E1,-1.9279112E1,6.934402E0],"split_indices":[6,0,3,1,3,1,1,3,1,1,1,0,1,0,1,1,0,0,0,0,0,0,0,0,0,0,0,0,0,0,0],"split_type":[0,0,0,0,0,0,0,0,0,0,0,0,0,0,0,0,0,0,0,0,0,0,0,0,0,0,0,0,0,0,0],"sum_hessian":[5.432E3,7.04E2,4.728E3,6.07E2,4.121E3,4.66E2,1.41E2,3.529E3,5.92E2,4.55E2,1.1E1,5E0,1.36E2,2.34E3,1.189E3,4.28E2,1.64E2,4.5E2,5E0,3E0,8E0,3.2E1,1.04E2,1.957E3,3.83E2,9.84E2,2.05E2,4.06E2,2.2E1,4.1E1,1.23E2],"tree_param":{"num_deleted":"0","num_feature":"8","num_nodes":"31","size_leaf_vector":"1"}},{"base_weights":[-4.9152217E0,-5.6027216E2,7.768145E1,-2.8235569E1,-4.7222922E2,4.5394925E2,2.2924475E1,-2.4319506E1,1.9886338E0,1.4364967E2,4.823571E2,5.1136795E1,-1.5303548E2,3.332769E2,-2.3302269E2,1.4910875E2,4.6784378E2,6.1409645E1,-2.2140417E2,-8.371837E1,-2.481768E2,2.4809423E1,-3.3614538E0,-2.965454E1,-1.761373E-1,1.9770483E1,2.8694208E1,2.6140165E0,2.2734901E1,-1.4911867E1,-1.7233448E0,-9.442357E0,3.4974325E0,-1.5786695E1,-1.4785146E0],"categories":[],"categories_nodes":[],"categories_segments":[],"categories_sizes":[],"default_left":[0,0,0,0,0,0,0,0,0,0,0,0,0,0,0,0,0,0,0,0,0,0,0,0,0,0,0,0,0,0,0,0,0,0,0],"id":25,"left_children":[1,3,5,-1,7,9,11,-1,-1,13,15,17,19,21,23,-1,25,27,29,31,33,-1,-1,-1,-1,-1,-1,-1,-1,-1,-1,-1,-1,-1,-1],"loss_changes":[2.5013045E8,8.752E3,9.779315E7,0E0,3.09584E5,5.245808E6,2.0584544E7,0E0,0E0,3.7919325E6,1.8629968E7,1.0017101E7,3.757949E6,2.3172195E6,1.4850532E6,0E0,3.997104E6,1.2341499E7,1.856741E6,5.392825E6,3.549679E6,0E0,0E0,0E0,0E0,0E0,0E0,0E0,0E0,0E0,0E0,0E0,0E0,0E0,0E0],"parents":[2147483647,0,0,1,1,2,2,4,4,5,5,6,6,9,9,10,10,11,11,12,12,13,13,14,14,16,16,17,17,18,18,19,19,20,20],"right_children":[2,4,6,-1,8,10,12,-1,-1,14,16,18,20,22,24,-1,26,28,30,32,34,-1,-1,-1,-1,-1,-1,-1,-1,-1,-1,-1,-1,-1,-1],"split_conditions":[1E0,2.4105561E-1,1.987E3,-2.8235569E1,1.875E1,1.0055503E-2,2.009E3,-2.4319506E1,1.9886338E0,5.638944E-3,1.0808272E-2,2.05E1,1.4E1,1E0,7.455054E-3,1.4910875E2,7.03494E-2,2.02E1,7.9506435E-2,9.695E0,8.812134E-2,2.4809423E1,-3.3614538E0,-2.965454E1,-1.761373E-1,1.9770483E1,2.8694208E1,2.6140165E0,2.2734901E1,-1.4911867E1,-1.7233448E0,-9.442357E0,3.4974325E0,-1.5786695E1,-1.4785146E0],"split_indices":[6,1,3,0,0,1,3,0,0,1,1,0,0,7,1,0,1,0,1,0,1,0,0,0,0,0,0,0,0,0,0,0,0,0,0],"split_type":[0,0,0,0,0,0,0,0,0,0,0,0,0,0,0,0,0,0,0,0,0,0,0,0,0,0,0,0,0,0,0,0,0,0,0],"sum_hessian":[5.451E3,7.05E2,4.746E3,6.66E2,3.9E1,6.02E2,4.144E3,3.8E1,1E0,5.1E1,5.51E2,3.572E3,5.72E2,3.4E1,1.7E1,2E0,5.49E2,3.443E3,1.29E2,3.32E2,2.4E2,2.4E1,1E1,6E0,1.1E1,3.29E2,2.2E2,3.366E3,7.7E1,9.1E1,3.8E1,1.97E2,1.35E2,1.83E2,5.7E1],"tree_param":{"num_deleted":"0","num_feature":"8","num_nodes":"35","size_leaf_vector":"1"}},{"base_weights":[-9.391656E-1,-3.3047974E2,3.391922E2,-5.201639E2,-1.6194786E2,-4.8333923E2,4.5911707E2,-6.306561E2,-4.2500623E2,-2.7866877E1,-1.0289964E2,-5.307614E2,-4.3251303E2,3.0985162E2,7.42614E2,-6.6007074E2,-5.8453394E2,-4.6648962E2,-1.0171363E2,-2.0009001E2,-2.2524479E1,-2.681869E1,-1.6082274E2,-3.799102E2,-4.7720648E2,6.989297E2,2.5622418E2,1.292493E3,6.618885E2,-3.1930466E1,-3.6388744E1,-2.1910736E1,-2.9751663E1,-3.0697931E1,-2.2000505E1,-1.2351997E1,1.3047886E0,-7.750306E0,-1.9503897E1,9.845144E0,-2.4607155E0,-1.7943146E0,-9.5169735E0,3.4128754E0,-1.9878798E1,-1.0854193E1,-2.4512753E1,2.9631636E1,5.7678406E1,6.8934746E0,1.7737268E1,6.821114E1,-1.8590567E1,2.9460722E1,4.3746834E1],"categories":[],"categories_nodes":[],"categories_segments":[],"categories_sizes":[],"default_left":[0,0,0,0,0,0,0,0,0,0,0,0,0,0,0,0,0,0,0,0,0,0,0,0,0,0,0,0,0,0,0,0,0,0,0,0,0,0,0,0,0,0,0,0,0,0,0,0,0,0,0,0,0,0,0],"id":26,"left_children":[1,3,5,7,9,11,13,15,17,-1,19,21,23,25,27,29,31,33,35,37,39,-1,41,43,45,47,49,51,53,-1,-1,-1,-1,-1,-1,-1,-1,-1,-1,-1,-1,-1,-1,-1,-1,-1,-1,-1,-1,-1,-1,-1,-1,-1,-1],"loss_changes":[6.0952954E8,8.821056E7,2.6418787E8,1.3389344E7,3.4122404E7,5.91864E5,9.862022E7,4.26208E5,9.353568E6,0E0,9.95529E6,2.70504E5,2.17946E5,3.1786032E7,3.487693E7,5.4736E4,1.10504E5,2.154272E6,1.5110568E6,4.881496E6,4.1032952E6,0E0,7.8071562E3,6.84431E5,1.91912E5,8.255912E6,1.566912E7,1.2684512E7,1.0383808E7,0E0,0E0,0E0,0E0,0E0,0E0,0E0,0E0,0E0,0E0,0E0,0E0,0E0,0E0,0E0,0E0,0E0,0E0,0E0,0E0,0E0,0E0,0E0,0E0,0E0,0E0],"parents":[2147483647,0,0,1,1,2,2,3,3,4,4,5,5,6,6,7,7,8,8,10,10,11,11,12,12,13,13,14,14,15,15,16,16,17,17,18,18,19,19,20,20,22,22,23,23,24,24,25,25,26,26,27,27,28,28],"right_children":[2,4,6,8,10,12,14,16,18,-1,20,22,24,26,28,30,32,34,36,38,40,-1,42,44,46,48,50,52,54,-1,-1,-1,-1,-1,-1,-1,-1,-1,-1,-1,-1,-1,-1,-1,-1,-1,-1,-1,-1,-1,-1,-1,-1,-1,-1],"split_conditions":[1.43447E2,9.12146E1,1E0,5.38614E1,1E0,1.85224E2,2.061638E2,4.51402E1,3E0,-2.7866877E1,1.11586E2,2.02E1,1.987E3,1.987E3,1.987E3,2.007E3,4.57428E1,1E0,6.66142E1,1.75E1,1.987E3,-2.681869E1,2.07E1,1.865924E2,6.15E0,1.89853E2,1.697448E2,2.63591E2,2.541014E2,-3.1930466E1,-3.6388744E1,-2.1910736E1,-2.9751663E1,-3.0697931E1,-2.2000505E1,-1.2351997E1,1.3047886E0,-7.750306E0,-1.9503897E1,9.845144E0,-2.4607155E0,-1.7943146E0,-9.5169735E0,3.4128754E0,-1.9878798E1,-1.0854193E1,-2.4512753E1,2.9631636E1,5.7678406E1,6.8934746E0,1.7737268E1,6.821114E1,-1.8590567E1,2.9460722E1,4.3746834E1],"split_indices":[2,2,6,2,6,2,2,2,6,0,2,0,3,3,3,3,2,6,2,0,3,0,0,2,0,2,2,2,2,0,0,0,0,0,0,0,0,0,0,0,0,0,0,0,0,0,0,0,0,0,0,0,0,0,0],"split_type":[0,0,0,0,0,0,0,0,0,0,0,0,0,0,0,0,0,0,0,0,0,0,0,0,0,0,0,0,0,0,0,0,0,0,0,0,0,0,0,0,0,0,0,0,0,0,0,0,0,0,0,0,0,0,0],"sum_hessian":[5.436E3,2.761E3,2.675E3,1.298E3,1.463E3,3.4E2,2.335E3,5.98E2,7E2,1.89E2,1.274E3,1.71E2,1.69E2,1.531E3,8.04E2,3.57E2,2.41E2,6.2E2,8E1,5.76E2,6.98E2,1.68E2,3E0,8.2E1,8.7E1,1.84E2,1.347E3,1.01E2,7.03E2,2.79E2,7.8E1,1.9E1,2.22E2,9.1E1,5.29E2,3.7E1,4.3E1,4.67E2,1.09E2,7.5E1,6.23E2,1E0,2E0,3E0,7.9E1,5E0,8.2E1,1.51E2,3.3E1,6.13E2,7.34E2,9.7E1,4E0,5.27E2,1.76E2],"tree_param":{"num_deleted":"0","num_feature":"8","num_nodes":"55","size_leaf_vector":"1"}},{"base_weights":[-9.478515E0,-2.7151456E2,3.5653494E2,-4.8066202E2,-1.2528765E2,-4.3865256E2,4.7204333E2,-5.681489E2,-3.717092E2,-5.3294916E2,-6.50729E1,-3.2529254E2,-4.4801154E2,3.3749805E2,8.2164154E2,-5.9376355E2,-4.9927664E2,-3.9916803E2,-1.5017154E2,-2.6914402E1,-1.7707014E1,2.0010391E2,-1.0147894E2,-3.644286E2,-8.793551E1,-4.6928128E2,-3.9403653E2,7.4097363E2,2.8251538E2,1.5336764E3,7.2648114E2,-3.214395E1,-2.8612726E1,-2.6875202E1,-1.2436202E1,-2.7200262E1,-1.8070368E1,-8.816657E0,2.3327673E1,1.0994229E1,-4.119978E1,-1.0018283E1,-4.256706E-1,-1.8974133E1,-1.1948334E0,3.884543E0,-1.8773525E1,-2.4283821E1,-1.9060186E1,-8.858797E0,-2.1084417E1,2.3594957E1,4.525223E1,1.48259115E1,-1.8991951E1,1.348923E2,6.4919655E1,4.259691E1,2.440221E1],"categories":[],"categories_nodes":[],"categories_segments":[],"categories_sizes":[],"default_left":[0,0,0,0,0,0,0,0,0,0,0,0,0,0,0,0,0,0,0,0,0,0,0,0,0,0,0,0,0,0,0,0,0,0,0,0,0,0,0,0,0,0,0,0,0,0,0,0,0,0,0,0,0,0,0,0,0,0,0],"id":27,"left_children":[1,3,5,7,9,11,13,15,17,19,21,23,25,27,29,31,33,35,37,-1,-1,39,41,43,45,47,49,51,53,55,57,-1,-1,-1,-1,-1,-1,-1,-1,-1,-1,-1,-1,-1,-1,-1,-1,-1,-1,-1,-1,-1,-1,-1,-1,-1,-1,-1,-1],"loss_changes":[5.300883E8,9.844731E7,2.120151E8,1.2418176E7,4.653112E7,1.64732E5,9.445424E7,9.96112E5,3.547104E6,4.1856E4,1.5988036E7,2.0924725E5,1.22324E5,3.2090288E7,3.676115E7,1.90336E5,1.829396E6,2.685184E6,1.1631358E6,0E0,0E0,4.232358E6,1.3374085E7,1.0351025E5,2.6743638E5,8.4464E4,4.16708E5,7.253856E6,1.2012192E7,1.4299264E7,1.4390768E7,0E0,0E0,0E0,0E0,0E0,0E0,0E0,0E0,0E0,0E0,0E0,0E0,0E0,0E0,0E0,0E0,0E0,0E0,0E0,0E0,0E0,0E0,0E0,0E0,0E0,0E0,0E0,0E0],"parents":[2147483647,0,0,1,1,2,2,3,3,4,4,5,5,6,6,7,7,8,8,9,9,10,10,11,11,12,12,13,13,14,14,15,15,16,16,17,17,18,18,21,21,22,22,23,23,24,24,25,25,26,26,27,27,28,28,29,29,30,30],"right_children":[2,4,6,8,10,12,14,16,18,20,22,24,26,28,30,32,34,36,38,-1,-1,40,42,44,46,48,50,52,54,56,58,-1,-1,-1,-1,-1,-1,-1,-1,-1,-1,-1,-1,-1,-1,-1,-1,-1,-1,-1,-1,-1,-1,-1,-1,-1,-1,-1,-1],"split_conditions":[1.55263E2,9.12146E1,1E0,5.87904E1,1E0,1.4098693E-2,2.27372E2,5.09666E1,3E0,2.8150952E-1,1.987E3,1.515E1,2.187166E2,1.987E3,1.987E3,3.8319E1,3E0,1.997E3,1.3218303E-1,-2.6914402E1,-1.7707014E1,1.539998E2,1.186098E2,1.2673238E-2,1.91E1,1.62E1,2.26172E2,1.774686E2,2.085E1,1.4359584E-2,7.46272E-2,-3.214395E1,-2.8612726E1,-2.6875202E1,-1.2436202E1,-2.7200262E1,-1.8070368E1,-8.816657E0,2.3327673E1,1.0994229E1,-4.119978E1,-1.0018283E1,-4.256706E-1,-1.8974133E1,-1.1948334E0,3.884543E0,-1.8773525E1,-2.4283821E1,-1.9060186E1,-8.858797E0,-2.1084417E1,2.3594957E1,4.525223E1,1.48259115E1,-1.8991951E1,1.348923E2,6.4919655E1,4.259691E1,2.440221E1],"split_indices":[2,2,6,2,6,1,2,2,6,1,3,0,2,3,3,2,6,3,1,0,0,2,2,1,0,0,2,2,0,1,1,0,0,0,0,0,0,0,0,0,0,0,0,0,0,0,0,0,0,0,0,0,0,0,0,0,0,0,0],"split_type":[0,0,0,0,0,0,0,0,0,0,0,0,0,0,0,0,0,0,0,0,0,0,0,0,0,0,0,0,0,0,0,0,0,0,0,0,0,0,0,0,0,0,0,0,0,0,0,0,0,0,0,0,0,0,0,0,0,0,0],"sum_hessian":[5.525E3,3.22E3,2.305E3,1.324E3,1.896E3,2.92E2,2.013E3,7.32E2,5.92E2,2.43E2,1.653E3,2.5E1,2.67E2,1.455E3,5.58E2,5.28E2,2.04E2,5.26E2,6.6E1,2.34E2,9E0,1.99E2,1.454E3,2.1E1,4E0,1.86E2,8.1E1,1.73E2,1.282E3,6.4E1,4.94E2,1.52E2,3.76E2,1.76E2,2.8E1,1.06E2,4.2E2,6.4E1,2E0,1.96E2,3E0,7.04E2,7.5E2,2E1,1E0,3E0,1E0,1.53E2,3.3E1,1E1,7.1E1,6.7E1,1.06E2,1.256E3,2.6E1,9E0,5.5E1,3.22E2,1.72E2],"tree_param":{"num_deleted":"0","num_feature":"8","num_nodes":"59","size_leaf_vector":"1"}},{"base_weights":[1.7952904E0,-2.9771945E2,3.0739725E2,-5.0736575E2,-1.980538E2,-4.3497452E2,4.1318652E2,-5.544062E2,-4.3436694E2,-5.0987628E2,-1.560301E2,-4.8494196E2,-3.608389E2,2.7587518E2,6.5645386E2,-3.0112976E1,-5.25806E2,-4.6535806E2,-1.8716965E2,-2.7549484E1,-2.3708746E1,-2.4840279E2,-3.0047686E1,-2.5690647E1,-4.3839554E2,4.437317E0,-3.647154E2,6.044511E2,2.2748509E2,1.2375247E3,5.7599207E2,-2.6397795E1,-5.2645407E0,-2.5836258E1,-2.0807432E1,3.4807947E0,-1.6900595E1,2.2444165E-1,-1.4172853E1,8.997203E0,-2.7767704E0,-2.2522125E1,-1.3454373E1,-2.1356567E1,-1.7180674E1,1.8383371E1,4.139744E1,5.818515E0,1.6076057E1,1.06588066E2,5.646113E1,3.1199675E1,1.5093738E1],"categories":[],"categories_nodes":[],"categories_segments":[],"categories_sizes":[],"default_left":[0,0,0,0,0,0,0,0,0,0,0,0,0,0,0,0,0,0,0,0,0,0,0,0,0,0,0,0,0,0,0,0,0,0,0,0,0,0,0,0,0,0,0,0,0,0,0,0,0,0,0,0,0],"id":28,"left_children":[1,3,5,7,9,11,13,15,17,19,21,23,25,27,29,-1,31,33,35,-1,-1,37,39,-1,41,-1,43,45,47,49,51,-1,-1,-1,-1,-1,-1,-1,-1,-1,-1,-1,-1,-1,-1,-1,-1,-1,-1,-1,-1,-1,-1],"loss_changes":[5.0040707E8,5.758896E7,2.126953E8,2.811408E6,2.4463776E7,1.076668E6,7.895101E7,4.17728E5,2.616876E6,6.4076E4,1.9217272E7,4.1692E4,2.76498E5,2.3966208E7,3.921421E7,0E0,2.55072E5,5.75688E5,1.6117638E6,0E0,0E0,8.449692E6,3.7564785E6,0E0,4.7724E4,0E0,3.5922E4,9.9616E6,1.378612E7,7.566432E6,9.705984E6,0E0,0E0,0E0,0E0,0E0,0E0,0E0,0E0,0E0,0E0,0E0,0E0,0E0,0E0,0E0,0E0,0E0,0E0,0E0,0E0,0E0,0E0],"parents":[2147483647,0,0,1,1,2,2,3,3,4,4,5,5,6,6,7,7,8,8,9,9,10,10,11,11,12,12,13,13,14,14,16,16,17,17,18,18,21,21,22,22,24,24,26,26,27,27,28,28,29,29,30,30],"right_children":[2,4,6,8,10,12,14,16,18,20,22,24,26,28,30,-1,32,34,36,-1,-1,38,40,-1,42,-1,44,46,48,50,52,-1,-1,-1,-1,-1,-1,-1,-1,-1,-1,-1,-1,-1,-1,-1,-1,-1,-1,-1,-1,-1,-1],"split_conditions":[1.43447E2,7.5467E1,1E0,5.20324E1,1E0,1.907188E2,1.993426E2,3.97138E1,3E0,1.065622E2,1.126176E2,1.705422E2,5.73E0,1.987E3,1.987E3,-3.0112976E1,2.01E1,5.87904E1,5.71272E1,-2.7549484E1,-2.3708746E1,1.987E3,1.987E3,-2.5690647E1,1.91E1,4.437317E0,1.285E1,1.72108E2,1.697448E2,2.103586E2,2.009E3,-2.6397795E1,-5.2645407E0,-2.5836258E1,-2.0807432E1,3.4807947E0,-1.6900595E1,2.2444165E-1,-1.4172853E1,8.997203E0,-2.7767704E0,-2.2522125E1,-1.3454373E1,-2.1356567E1,-1.7180674E1,1.8383371E1,4.139744E1,5.818515E0,1.6076057E1,1.06588066E2,5.646113E1,3.1199675E1,1.5093738E1],"split_indices":[2,2,6,2,6,2,2,2,6,2,2,2,0,3,3,0,0,2,2,0,0,3,3,0,0,0,0,2,2,2,3,0,0,0,0,0,0,0,0,0,0,0,0,0,0,0,0,0,0,0,0,0,0],"split_type":[0,0,0,0,0,0,0,0,0,0,0,0,0,0,0,0,0,0,0,0,0,0,0,0,0,0,0,0,0,0,0,0,0,0,0,0,0,0,0,0,0,0,0,0,0,0,0,0,0,0,0,0,0],"sum_hessian":[5.465E3,2.76E3,2.705E3,8.88E2,1.872E3,3.37E2,2.368E3,5.36E2,3.52E2,2.21E2,1.651E3,1.98E2,1.39E2,1.515E3,8.53E2,1.93E2,3.43E2,3.12E2,4E1,9.6E1,1.25E2,9.52E2,6.99E2,1.16E2,8.2E1,1E0,1.38E2,1.93E2,1.322E3,1.02E2,7.51E2,3.41E2,2E0,1.48E2,1.64E2,1.5E1,2.5E1,1.16E2,8.36E2,7.5E1,6.24E2,7.5E1,7E0,3E1,1.08E2,9.5E1,9.8E1,6.07E2,7.15E2,9E0,9.3E1,6.38E2,1.13E2],"tree_param":{"num_deleted":"0","num_feature":"8","num_nodes":"53","size_leaf_vector":"1"}},{"base_weights":[-1.0177412E1,-3.1601443E2,2.5600378E2,-4.95241E2,-2.1717531E2,-4.2727576E2,3.5952823E2,-5.643489E2,-4.494841E2,-2.4528006E1,-1.8200504E2,-2.4218746E1,-3.8735785E2,2.5520677E2,6.5870245E2,-3.210007E1,-2.7236423E1,-4.7896143E2,-3.8568298E2,-2.7350168E2,-1.2784835E2,-1.6386572E2,-3.9057196E2,6.2644244E2,2.0046394E2,8.8623645E2,5.74374E2,-2.4715727E1,-1.69964E1,-2.2361217E1,-1.5322894E1,-6.1687427E0,-1.4745651E1,4.3363986E0,-7.7306366E0,-1.19589815E1,3.4222474E0,-2.0479635E1,-1.7762505E1,2.6611807E1,4.7527832E1,4.2724433E0,1.50395155E1,4.0214584E1,6.728568E1,3.123381E1,1.5556447E1],"categories":[],"categories_nodes":[],"categories_segments":[],"categories_sizes":[],"default_left":[0,0,0,0,0,0,0,0,0,0,0,0,0,0,0,0,0,0,0,0,0,0,0,0,0,0,0,0,0,0,0,0,0,0,0,0,0,0,0,0,0,0,0,0,0,0,0],"id":29,"left_children":[1,3,5,7,9,11,13,15,17,-1,19,-1,21,23,25,-1,-1,27,29,31,33,35,37,39,41,43,45,-1,-1,-1,-1,-1,-1,-1,-1,-1,-1,-1,-1,-1,-1,-1,-1,-1,-1,-1,-1],"loss_changes":[4.438363E8,4.483403E7,2.0634938E8,2.594928E6,1.5650168E7,6.87184E5,7.885587E7,1.9056E5,8.43576E5,0E0,7.159716E6,0E0,1.01656E5,3.805997E7,1.2038944E7,0E0,0E0,6.21352E5,7.30428E5,1.695976E6,5.262546E6,1.03937125E5,6.62E3,6.851936E6,1.8886596E7,5.505648E6,6.161232E6,0E0,0E0,0E0,0E0,0E0,0E0,0E0,0E0,0E0,0E0,0E0,0E0,0E0,0E0,0E0,0E0,0E0,0E0,0E0,0E0],"parents":[2147483647,0,0,1,1,2,2,3,3,4,4,5,5,6,6,7,7,8,8,10,10,12,12,13,13,14,14,17,17,18,18,19,19,20,20,21,21,22,22,23,23,24,24,25,25,26,26],"right_children":[2,4,6,8,10,12,14,16,18,-1,20,-1,22,24,26,-1,-1,28,30,32,34,36,38,40,42,44,46,-1,-1,-1,-1,-1,-1,-1,-1,-1,-1,-1,-1,-1,-1,-1,-1,-1,-1,-1,-1],"split_conditions":[1.289652E2,7.5467E1,1E0,4.51402E1,1E0,1.705422E2,2.187166E2,3.52874E1,5.97536E1,-2.4528006E1,9.85358E1,-2.4218746E1,1.72108E2,1.987E3,1.997E3,-3.210007E1,-2.7236423E1,3E0,2.002E3,1.987E3,1.987E3,1.713448E2,2.187166E2,1.89853E2,1.697448E2,2.604594E2,2.009E3,-2.4715727E1,-1.69964E1,-2.2361217E1,-1.5322894E1,-6.1687427E0,-1.4745651E1,4.3363986E0,-7.7306366E0,-1.19589815E1,3.4222474E0,-2.0479635E1,-1.7762505E1,2.6611807E1,4.7527832E1,4.2724433E0,1.50395155E1,4.0214584E1,6.728568E1,3.123381E1,1.5556447E1],"split_indices":[2,2,6,2,6,2,2,2,2,0,2,0,2,3,3,0,0,6,3,3,3,2,2,2,2,2,3,0,0,0,0,0,0,0,0,0,0,0,0,0,0,0,0,0,0,0,0],"split_type":[0,0,0,0,0,0,0,0,0,0,0,0,0,0,0,0,0,0,0,0,0,0,0,0,0,0,0,0,0,0,0,0,0,0,0,0,0,0,0,0,0,0,0,0,0,0,0],"sum_hessian":[5.45E3,2.536E3,2.914E3,9E2,1.636E3,3.83E2,2.531E3,3.54E2,5.46E2,1.85E2,1.451E3,1.53E2,2.3E2,1.878E3,6.53E2,6.5E1,2.89E2,3.69E2,1.77E2,5.38E2,9.13E2,4E0,2.26E2,2.4E2,1.638E3,1.74E2,4.79E2,3.3E2,3.9E1,9.7E1,8E1,6.8E1,4.7E2,1.01E2,8.12E2,3E0,1E0,1.4E2,8.6E1,1.88E2,5.2E1,7.64E2,8.74E2,1.5E2,2.4E1,4.01E2,7.8E1],"tree_param":{"num_deleted":"0","num_feature":"8","num_nodes":"47","size_leaf_vector":"1"}},{"base_weights":[3.7280326E0,-2.9618658E2,2.641604E2,-4.7744888E2,-2.030841E2,-3.9764005E2,3.6050665E2,-5.3834546E2,-4.3502722E2,-4.6472467E2,-1.6761954E2,-4.1793207E2,-3.24348E2,1.9062505E2,5.253106E2,-2.5824457E1,-6.137633E2,-4.509812E2,-3.1479926E2,-2.490135E1,-4.235363E2,2.0651365E1,-1.9306216E2,-2.127403E1,-3.0627155E2,-1.887442E1,-3.3515576E2,5.8440466E2,1.3099367E2,9.3118567E2,4.707859E2,-1.5104693E1,-3.2090473E1,-2.1097235E1,-2.5537918E1,-2.650174E1,-8.161216E0,-2.1640799E1,-1.2116179E1,-1.9224981E0,1.84969E1,-1.3039931E1,-5.7722406E0,-1.802766E1,1.4004654E0,9.4069605E0,-1.6010382E1,4.770447E0,-1.707881E1,7.26657E1,2.4135344E1,8.104865E0,-2.9727674E0,3.704127E1,7.2758965E1,1.9364956E1,3.1720087E1],"categories":[],"categories_nodes":[],"categories_segments":[],"categories_sizes":[],"default_left":[0,0,0,0,0,0,0,0,0,0,0,0,0,0,0,0,0,0,0,0,0,0,0,0,0,0,0,0,0,0,0,0,0,0,0,0,0,0,0,0,0,0,0,0,0,0,0,0,0,0,0,0,0,0,0,0,0],"id":30,"left_children":[1,3,5,7,9,11,13,15,17,19,21,23,25,27,29,-1,31,33,35,-1,37,39,41,-1,43,45,47,49,51,53,55,-1,-1,-1,-1,-1,-1,-1,-1,-1,-1,-1,-1,-1,-1,-1,-1,-1,-1,-1,-1,-1,-1,-1,-1,-1,-1],"loss_changes":[4.3123152E8,4.320643E7,1.8856002E8,2.0128E6,1.5668192E7,4.23276E5,7.213216E7,2.64304E5,8.51232E5,6.5684E4,7.170072E6,1.146E5,2.77426E5,2.9791716E7,2.8529376E7,0E0,4.52486E5,5.73784E5,2.0010955E6,0E0,5.7896E4,3.7095415E6,6.899116E6,0E0,4.0946225E5,3.0982997E5,2.62157E5,1.405466E7,6.561252E6,1.4281992E7,1.5544496E7,0E0,0E0,0E0,0E0,0E0,0E0,0E0,0E0,0E0,0E0,0E0,0E0,0E0,0E0,0E0,0E0,0E0,0E0,0E0,0E0,0E0,0E0,0E0,0E0,0E0,0E0],"parents":[2147483647,0,0,1,1,2,2,3,3,4,4,5,5,6,6,7,7,8,8,9,9,10,10,11,11,12,12,13,13,14,14,16,16,17,17,18,18,20,20,21,21,22,22,24,24,25,25,26,26,27,27,28,28,29,29,30,30],"right_children":[2,4,6,8,10,12,14,16,18,20,22,24,26,28,30,-1,32,34,36,-1,38,40,42,-1,44,46,48,50,52,54,56,-1,-1,-1,-1,-1,-1,-1,-1,-1,-1,-1,-1,-1,-1,-1,-1,-1,-1,-1,-1,-1,-1,-1,-1,-1,-1],"split_conditions":[1.289652E2,6.66142E1,1E0,4.51402E1,1E0,2.187166E2,1.818608E2,2.007E3,3E0,1.065622E2,1.987E3,2.4105561E-1,2.201798E2,1.987E3,1.987E3,-2.5824457E1,5.638944E-3,2E0,3.6027525E-2,-2.490135E1,2.8150952E-1,1.219072E2,1.060596E2,-2.127403E1,1.3E1,8.080402E-2,5.73E0,1.2673238E-2,2.009E3,8.3147705E-2,2.339958E2,-1.5104693E1,-3.2090473E1,-2.1097235E1,-2.5537918E1,-2.650174E1,-8.161216E0,-2.1640799E1,-1.2116179E1,-1.9224981E0,1.84969E1,-1.3039931E1,-5.7722406E0,-1.802766E1,1.4004654E0,9.4069605E0,-1.6010382E1,4.770447E0,-1.707881E1,7.26657E1,2.4135344E1,8.104865E0,-2.9727674E0,3.704127E1,7.2758965E1,1.9364956E1,3.1720087E1],"split_indices":[2,2,6,2,6,2,2,3,6,2,3,1,2,3,3,0,1,5,1,0,1,2,2,0,0,1,0,1,3,1,2,0,0,0,0,0,0,0,0,0,0,0,0,0,0,0,0,0,0,0,0,0,0,0,0,0,0],"split_type":[0,0,0,0,0,0,0,0,0,0,0,0,0,0,0,0,0,0,0,0,0,0,0,0,0,0,0,0,0,0,0,0,0,0,0,0,0,0,0,0,0,0,0,0,0,0,0,0,0,0,0,0,0,0,0,0,0],"sum_hessian":[5.519E3,2.565E3,2.954E3,8.69E2,1.696E3,3.75E2,2.579E3,3.52E2,5.17E2,2.01E2,1.495E3,2.9E2,8.5E1,1.271E3,1.308E3,2.79E2,7.3E1,4.54E2,6.3E1,1.05E2,9.6E1,1.78E2,1.317E3,2.69E2,2.1E1,3E0,8.2E1,1.66E2,1.105E3,1.53E2,1.155E3,7E0,6.6E1,3.11E2,1.43E2,2.5E1,3.8E1,9E1,6E0,1.53E2,2.5E1,7.02E2,6.15E2,1.8E1,3E0,2E0,1E0,1E0,8.1E1,1.6E1,1.5E2,9.5E2,1.55E2,1.14E2,3.9E1,7.67E2,3.88E2],"tree_param":{"num_deleted":"0","num_feature":"8","num_nodes":"57","size_leaf_vector":"1"}},{"base_weights":[-1.5706767E-1,-2.0810052E2,3.2995056E2,-3.8739972E2,-8.127096E1,2.3235011E2,5.1627576E2,-4.4987372E2,-2.8329114E2,-1.5058934E2,1.5990559E1,2.7102917E2,-7.4588614E0,6.2351166E2,2.2898044E2,-4.971941E2,-4.1641837E2,-2.4217535E2,-4.1924426E2,-1.325742E2,-2.8131094E2,4.7201183E1,-2.1304384E2,3.0005908E2,1.8270674E1,-6.6092444E2,3.9000217E1,6.775261E2,1.8819783E2,-1.0602261E2,3.838105E2,-2.3483988E1,-2.6912268E1,-2.6807901E1,-2.020726E1,-1.0805093E1,-2.061199E1,-2.5561316E1,-1.47821E1,-2.70363E0,-9.015462E0,7.780666E0,-1.6574768E1,1.4444858E0,2.1542572E1,-1.818842E1,4.9706683E0,2.185912E1,1.0735152E1,-3.0038831E0,2.0458307E1,-4.053284E1,2.8384089E1,2.5492937E1,-2.8327062E0,3.7582634E1,1.20541525E1,-9.019884E0,2.8141163E1,-3.0701889E1,4.5390773E0,4.290617E1,6.3286753E0],"categories":[],"categories_nodes":[],"categories_segments":[],"categories_sizes":[],"default_left":[0,0,0,0,0,0,0,0,0,0,0,0,0,0,0,0,0,0,0,0,0,0,0,0,0,0,0,0,0,0,0,0,0,0,0,0,0,0,0,0,0,0,0,0,0,0,0,0,0,0,0,0,0,0,0,0,0,0,0,0,0,0,0],"id":31,"left_children":[1,3,5,7,9,11,13,15,17,19,21,23,25,27,29,31,33,35,37,39,41,43,45,47,49,51,53,55,57,59,61,-1,-1,-1,-1,-1,-1,-1,-1,-1,-1,-1,-1,-1,-1,-1,-1,-1,-1,-1,-1,-1,-1,-1,-1,-1,-1,-1,-1,-1,-1,-1,-1],"loss_changes":[3.776091E8,7.671726E7,3.854189E7,8.964896E6,1.3338171E7,1.2960144E7,2.2346912E7,1.172992E6,2.843972E6,2.682488E6,5.900178E6,8.82144E6,5.946172E6,1.23576E7,1.0414539E7,1.48784E5,5.42616E5,1.715308E6,1.224126E6,3.801114E6,3.099497E6,5.087618E6,4.698697E6,1.2534752E7,3.8530075E6,2.8518245E6,8.271371E6,1.5088448E7,8.386839E6,6.4546925E6,1.660637E7,0E0,0E0,0E0,0E0,0E0,0E0,0E0,0E0,0E0,0E0,0E0,0E0,0E0,0E0,0E0,0E0,0E0,0E0,0E0,0E0,0E0,0E0,0E0,0E0,0E0,0E0,0E0,0E0,0E0,0E0,0E0,0E0],"parents":[2147483647,0,0,1,1,2,2,3,3,4,4,5,5,6,6,7,7,8,8,9,9,10,10,11,11,12,12,13,13,14,14,15,15,16,16,17,17,18,18,19,19,20,20,21,21,22,22,23,23,24,24,25,25,26,26,27,27,28,28,29,29,30,30],"right_children":[2,4,6,8,10,12,14,16,18,20,22,24,26,28,30,32,34,36,38,40,42,44,46,48,50,52,54,56,58,60,62,-1,-1,-1,-1,-1,-1,-1,-1,-1,-1,-1,-1,-1,-1,-1,-1,-1,-1,-1,-1,-1,-1,-1,-1,-1,-1,-1,-1,-1,-1,-1,-1],"split_conditions":[1.617578E2,9.48436E1,2.201798E2,6.66142E1,1.289652E2,1.2283769E-1,9.105499E-2,4.51402E1,1.685E1,2.009E3,1.4112927E-1,2.009E3,1.2639886E-1,2.009E3,1.133078E-1,2E0,1E0,1.2639886E-1,1.935E1,2E0,6.465E0,1.15819015E-1,2.002E3,2E0,7.685563E-2,1.56E1,8.18E0,1.77E1,1.18E1,2.295694E2,2E0,-2.3483988E1,-2.6912268E1,-2.6807901E1,-2.020726E1,-1.0805093E1,-2.061199E1,-2.5561316E1,-1.47821E1,-2.70363E0,-9.015462E0,7.780666E0,-1.6574768E1,1.4444858E0,2.1542572E1,-1.818842E1,4.9706683E0,2.185912E1,1.0735152E1,-3.0038831E0,2.0458307E1,-4.053284E1,2.8384089E1,2.5492937E1,-2.8327062E0,3.7582634E1,1.20541525E1,-9.019884E0,2.8141163E1,-3.0701889E1,4.5390773E0,4.290617E1,6.3286753E0],"split_indices":[2,2,2,2,2,1,1,2,0,3,1,3,1,3,1,5,4,1,0,4,0,1,3,4,1,0,0,0,0,2,4,0,0,0,0,0,0,0,0,0,0,0,0,0,0,0,0,0,0,0,0,0,0,0,0,0,0,0,0,0,0,0,0],"split_type":[0,0,0,0,0,0,0,0,0,0,0,0,0,0,0,0,0,0,0,0,0,0,0,0,0,0,0,0,0,0,0,0,0,0,0,0,0,0,0,0,0,0,0,0,0,0,0,0,0,0,0,0,0,0,0,0,0,0,0,0,0,0,0],"sum_hessian":[5.499E3,3.374E3,2.125E3,1.397E3,1.977E3,1.396E3,7.29E2,8.71E2,5.26E2,1.154E3,8.23E2,1.202E3,1.94E2,5.3E2,1.99E2,3.55E2,5.16E2,4.06E2,1.2E2,1.016E3,1.38E2,7.25E2,9.8E1,1.078E3,1.24E2,1.2E1,1.82E2,4.71E2,5.9E1,6.3E1,1.36E2,2.2E2,1.35E2,4.4E1,4.72E2,3.54E2,5.2E1,6.7E1,5.3E1,3.85E2,6.31E2,1.4E1,1.24E2,6.93E2,3.2E1,6.6E1,3.2E1,4.12E2,6.66E2,1.04E2,2E1,1.1E1,1E0,3E1,1.52E2,4.02E2,6.9E1,3E1,2.9E1,1.7E1,4.6E1,4.7E1,8.9E1],"tree_param":{"num_deleted":"0","num_feature":"8","num_nodes":"63","size_leaf_vector":"1"}},{"base_weights":[4.530893E0,-4.0874667E2,6.334663E1,-2.0743818E1,-1.4883189E1,3.406199E2,2.3616304E1,2.814938E2,4.48238E2,5.095607E1,-1.4628026E2,3.160967E2,-4.9222784E2,6.4300555E2,2.31672E2,2.3311317E1,1.05132E2,-2.628317E2,-7.754384E1,1.2855125E1,1.9762209E1,-2.9956757E1,2.4398804E-1,2.1014673E1,4.4620102E1,-2.504237E1,2.151126E1,3.88455E0,-1.4337105E0,6.7261734E0,-2.0020857E0,4.2430654E0,-1.874819E1,8.7379814E1,-4.62077E0],"categories":[],"categories_nodes":[],"categories_segments":[],"categories_sizes":[],"default_left":[0,0,0,0,0,0,0,0,0,0,0,0,0,0,0,0,0,0,0,0,0,0,0,0,0,0,0,0,0,0,0,0,0,0,0],"id":32,"left_children":[1,3,5,-1,-1,7,9,11,13,15,17,19,21,23,25,27,29,31,33,-1,-1,-1,-1,-1,-1,-1,-1,-1,-1,-1,-1,-1,-1,-1,-1],"loss_changes":[1.3228134E8,3.37784E5,5.2472744E7,0E0,0E0,3.672192E6,1.9367482E7,1.054343E7,8.708408E6,5.375654E6,4.609997E6,1.635012E6,9.0667575E5,5.734072E6,1.490529E7,6.7275815E6,5.181143E6,8.375298E6,1.0067755E7,0E0,0E0,0E0,0E0,0E0,0E0,0E0,0E0,0E0,0E0,0E0,0E0,0E0,0E0,0E0,0E0],"parents":[2147483647,0,0,1,1,2,2,5,5,6,6,7,7,8,8,9,9,10,10,11,11,12,12,13,13,14,14,15,15,16,16,17,17,18,18],"right_children":[2,4,6,-1,-1,8,10,12,14,16,18,20,22,24,26,28,30,32,34,-1,-1,-1,-1,-1,-1,-1,-1,-1,-1,-1,-1,-1,-1,-1,-1],"split_conditions":[1E0,2.4105561E-1,1.987E3,-2.0743818E1,-1.4883189E1,7.03494E-2,2.009E3,6.660849E-2,9.972989E-2,2.004E3,3.5644326E-2,3.4745306E-2,6.970777E-2,8.2526475E-2,1.12410046E-1,1E0,1.07662745E-1,1.0055503E-2,3.627089E-2,1.2855125E1,1.9762209E1,-2.9956757E1,2.4398804E-1,2.1014673E1,4.4620102E1,-2.504237E1,2.151126E1,3.88455E0,-1.4337105E0,6.7261734E0,-2.0020857E0,4.2430654E0,-1.874819E1,8.7379814E1,-4.62077E0],"split_indices":[6,1,3,0,0,1,3,1,1,3,1,1,1,1,1,5,1,1,1,0,0,0,0,0,0,0,0,0,0,0,0,0,0,0,0],"split_type":[0,0,0,0,0,0,0,0,0,0,0,0,0,0,0,0,0,0,0,0,0,0,0,0,0,0,0,0,0,0,0,0,0,0,0],"sum_hessian":[5.44E3,6.77E2,4.763E3,6.39E2,3.8E1,5.96E2,4.167E3,3.87E2,2.09E2,3.59E3,5.77E2,3.71E2,1.6E1,1.09E2,1E2,2.378E3,1.212E3,2.13E2,3.64E2,2.15E2,1.56E2,1.3E1,3E0,5.9E1,5E1,2.1E1,7.9E1,1.162E3,1.216E3,1.008E3,2.04E2,5.2E1,1.61E2,2E0,3.62E2],"tree_param":{"num_deleted":"0","num_feature":"8","num_nodes":"35","size_leaf_vector":"1"}},{"base_weights":[-1.901695E1,-1.9824219E2,3.0736923E2,-3.768732E2,-8.057109E1,-3.3233472E2,3.9749988E2,-4.400147E2,-3.048097E2,-4.0531992E2,-3.0998219E1,-4.4098602E2,-3.1590207E2,8.383019E2,3.3379468E2,-2.5573547E1,-4.208354E2,-3.2684274E2,-1.1198638E2,-4.1264603E2,-2.9995914E2,1.9760025E2,-6.04087E1,-2.4759747E1,-2.3672577E2,-1.464184E2,-3.2444635E2,6.444772E2,1.1485945E3,2.3200613E2,5.1239026E2,-2.1576628E1,-1.6199286E1,-1.1859893E1,-1.8098375E1,-1.3396843E1,6.2960496E0,-2.0679808E1,-4.127701E0,-1.5688202E1,-2.3890686E-1,1.1847121E1,-1.6611681E1,-6.704179E0,1.4199274E0,5.056302E0,-1.4975415E1,-1.2387221E1,5.902238E0,-2.2668055E1,-1.5766032E1,3.5549873E1,-3.3194454E1,4.7529335E1,9.190448E1,1.2394952E1,-1.9542053E1,4.4504375E0,2.8769535E1],"categories":[],"categories_nodes":[],"categories_segments":[],"categories_sizes":[],"default_left":[0,0,0,0,0,0,0,0,0,0,0,0,0,0,0,0,0,0,0,0,0,0,0,0,0,0,0,0,0,0,0,0,0,0,0,0,0,0,0,0,0,0,0,0,0,0,0,0,0,0,0,0,0,0,0,0,0,0,0],"id":33,"left_children":[1,3,5,7,9,11,13,15,17,19,21,23,25,27,29,-1,31,33,35,37,39,41,43,-1,45,47,49,51,53,55,57,-1,-1,-1,-1,-1,-1,-1,-1,-1,-1,-1,-1,-1,-1,-1,-1,-1,-1,-1,-1,-1,-1,-1,-1,-1,-1,-1,-1],"loss_changes":[3.19979E8,7.419E7,1.1192893E8,6.24488E6,3.4277516E7,2.88818E5,4.745792E7,8.05296E5,2.758684E6,9.3536E4,1.2443048E7,2.035175E5,2.5926E5,1.2129328E7,2.6912912E7,0E0,4.74168E5,1.771604E6,2.593832E6,4.7468E4,8.799025E4,4.4769285E6,1.0727612E7,0E0,2.0007681E5,3.508738E5,9.3124E4,1.213444E7,9.309896E6,9.490828E6,1.4325296E7,0E0,0E0,0E0,0E0,0E0,0E0,0E0,0E0,0E0,0E0,0E0,0E0,0E0,0E0,0E0,0E0,0E0,0E0,0E0,0E0,0E0,0E0,0E0,0E0,0E0,0E0,0E0,0E0],"parents":[2147483647,0,0,1,1,2,2,3,3,4,4,5,5,6,6,7,7,8,8,9,9,10,10,11,11,12,12,13,13,14,14,16,16,17,17,18,18,19,19,20,20,21,21,22,22,24,24,25,25,26,26,27,27,28,28,29,29,30,30],"right_children":[2,4,6,8,10,12,14,16,18,20,22,24,26,28,30,-1,32,34,36,38,40,42,44,-1,46,48,50,52,54,56,58,-1,-1,-1,-1,-1,-1,-1,-1,-1,-1,-1,-1,-1,-1,-1,-1,-1,-1,-1,-1,-1,-1,-1,-1,-1,-1,-1,-1],"split_conditions":[1.678474E2,9.48436E1,1E0,5.97536E1,1E0,8.895E0,1.987E3,3.8319E1,3E0,2.4105561E-1,1.987E3,2.51904E2,5.638944E-3,2.217456E2,2.235772E2,-2.5573547E1,3E0,9.1E0,8.70856E1,1.669184E2,1.581604E2,1.4239335E-1,1.289652E2,-2.4759747E1,5.73E0,1.515E1,1.705422E2,2.171192E2,7.634893E-2,2.085E1,7.405E0,-2.1576628E1,-1.6199286E1,-1.1859893E1,-1.8098375E1,-1.3396843E1,6.2960496E0,-2.0679808E1,-4.127701E0,-1.5688202E1,-2.3890686E-1,1.1847121E1,-1.6611681E1,-6.704179E0,1.4199274E0,5.056302E0,-1.4975415E1,-1.2387221E1,5.902238E0,-2.2668055E1,-1.5766032E1,3.5549873E1,-3.3194454E1,4.7529335E1,9.190448E1,1.2394952E1,-1.9542053E1,4.4504375E0,2.8769535E1],"split_indices":[2,2,6,2,6,0,3,2,6,1,3,2,1,2,2,0,6,0,2,2,2,1,2,0,0,0,2,2,1,0,0,0,0,0,0,0,0,0,0,0,0,0,0,0,0,0,0,0,0,0,0,0,0,0,0,0,0,0,0],"split_type":[0,0,0,0,0,0,0,0,0,0,0,0,0,0,0,0,0,0,0,0,0,0,0,0,0,0,0,0,0,0,0,0,0,0,0,0,0,0,0,0,0,0,0,0,0,0,0,0,0,0,0,0,0,0,0,0,0,0,0],"sum_hessian":[5.468E3,3.53E3,1.938E3,1.401E3,2.129E3,2.39E2,1.699E3,7.44E2,6.57E2,2.81E2,1.848E3,2.8E1,2.11E2,2.13E2,1.486E3,1.52E2,5.92E2,5.89E2,6.8E1,2.6E2,2.1E1,2.1E2,1.638E3,2.1E1,7E0,1.1E1,2E2,1.33E2,8E1,9.48E2,5.38E2,5.3E2,6.2E1,1.68E2,4.21E2,4.1E1,2.7E1,2.59E2,1E0,2E1,1E0,1.96E2,1.4E1,8.95E2,7.43E2,1E0,6E0,8E0,3E0,1E1,1.9E2,1.27E2,6E0,6.4E1,1.6E1,9.25E2,2.3E1,7E1,4.68E2],"tree_param":{"num_deleted":"0","num_feature":"8","num_nodes":"59","size_leaf_vector":"1"}},{"base_weights":[-9.83575E-1,-2.0980545E2,2.9507263E2,-3.5425E2,-9.7870514E1,-3.2634387E2,3.8532742E2,-4.1198602E2,-2.576755E2,-3.7412628E2,-5.6572647E1,-3.3294244E2,-2.0270515E2,2.6086066E2,6.844589E2,-4.6009097E2,-3.8067935E2,-2.8880945E2,1.3699416E0,-1.8953846E1,-2.3970642E2,-1.20754166E2,6.0306484E1,-3.80003E2,-3.1100937E2,-2.548989E2,-9.1657104E1,5.578476E2,2.1744656E2,1.2283999E3,6.066277E2,-2.5293936E1,-2.116522E1,-1.9859253E1,-1.2811386E1,-2.176364E1,-1.3199091E1,-6.05169E0,1.482639E1,-7.465764E0,-1.4503158E1,3.3107421E0,-7.198259E0,5.1956916E0,-1.2910193E1,-1.4541942E1,-2.0131422E1,-8.35757E0,-1.5947881E1,-1.7388187E1,-5.9733787E0,3.3591208E-1,-1.706023E1,2.6780165E1,1.1125274E2,6.5011E0,1.4493021E1,1.2458412E2,5.142123E1,2.929397E1,5.284515E1],"categories":[],"categories_nodes":[],"categories_segments":[],"categories_sizes":[],"default_left":[0,0,0,0,0,0,0,0,0,0,0,0,0,0,0,0,0,0,0,0,0,0,0,0,0,0,0,0,0,0,0,0,0,0,0,0,0,0,0,0,0,0,0,0,0,0,0,0,0,0,0,0,0,0,0,0,0,0,0,0,0],"id":34,"left_children":[1,3,5,7,9,11,13,15,17,19,21,23,25,27,29,31,33,35,37,-1,39,41,43,45,47,49,51,53,55,57,59,-1,-1,-1,-1,-1,-1,-1,-1,-1,-1,-1,-1,-1,-1,-1,-1,-1,-1,-1,-1,-1,-1,-1,-1,-1,-1,-1,-1,-1,-1],"loss_changes":[3.3526624E8,5.1380576E7,1.2592627E8,7.632752E6,2.0434552E7,1.64756E5,7.27583E7,1.130144E6,4.210524E6,6.3874E4,1.1717123E7,1.59128E5,7.4995625E4,1.7735696E7,2.3596864E7,3.53024E5,9.88664E5,1.57928E6,2.095298E6,0E0,6.5393125E3,4.384029E6,7.721477E6,4.5963E4,1.62548E5,9.656481E4,1.7430478E5,5.333996E6,7.622312E6,1.5372128E7,4.097888E6,0E0,0E0,0E0,0E0,0E0,0E0,0E0,0E0,0E0,0E0,0E0,0E0,0E0,0E0,0E0,0E0,0E0,0E0,0E0,0E0,0E0,0E0,0E0,0E0,0E0,0E0,0E0,0E0,0E0,0E0],"parents":[2147483647,0,0,1,1,2,2,3,3,4,4,5,5,6,6,7,7,8,8,9,9,10,10,11,11,12,12,13,13,14,14,15,15,16,16,17,17,18,18,20,20,21,21,22,22,23,23,24,24,25,25,26,26,27,27,28,28,29,29,30,30],"right_children":[2,4,6,8,10,12,14,16,18,20,22,24,26,28,30,32,34,36,38,-1,40,42,44,46,48,50,52,54,56,58,60,-1,-1,-1,-1,-1,-1,-1,-1,-1,-1,-1,-1,-1,-1,-1,-1,-1,-1,-1,-1,-1,-1,-1,-1,-1,-1,-1,-1,-1,-1],"split_conditions":[1.565288E2,9.48436E1,1E0,7.40038E1,1E0,2.4105561E-1,2.246088E2,4.51402E1,3E0,2.8150952E-1,1.289652E2,1.79866E2,1.987E3,1.987E3,1.987E3,2E0,3E0,1E0,7.8874946E-2,-1.8953846E1,1.256046E2,1.987E3,2.009E3,4.5203853E-2,5.638944E-3,1.933162E2,1.946136E2,1.6853182E-1,1.805976E2,1.4359584E-2,2.64391E2,-2.5293936E1,-2.116522E1,-1.9859253E1,-1.2811386E1,-2.176364E1,-1.3199091E1,-6.05169E0,1.482639E1,-7.465764E0,-1.4503158E1,3.3107421E0,-7.198259E0,5.1956916E0,-1.2910193E1,-1.4541942E1,-2.0131422E1,-8.35757E0,-1.5947881E1,-1.7388187E1,-5.9733787E0,3.3591208E-1,-1.706023E1,2.6780165E1,1.1125274E2,6.5011E0,1.4493021E1,1.2458412E2,5.142123E1,2.929397E1,5.284515E1],"split_indices":[2,2,6,2,6,1,2,2,6,1,2,2,3,3,3,4,6,6,1,0,2,3,3,1,1,2,2,1,2,1,2,0,0,0,0,0,0,0,0,0,0,0,0,0,0,0,0,0,0,0,0,0,0,0,0,0,0,0,0,0,0],"split_type":[0,0,0,0,0,0,0,0,0,0,0,0,0,0,0,0,0,0,0,0,0,0,0,0,0,0,0,0,0,0,0,0,0,0,0,0,0,0,0,0,0,0,0,0,0,0,0,0,0,0,0,0,0,0,0,0,0,0,0,0,0],"sum_hessian":[5.421E3,3.179E3,2.242E3,1.387E3,1.792E3,2.84E2,1.958E3,8.66E2,5.21E2,2.32E2,1.56E3,2.68E2,1.6E1,1.384E3,5.74E2,3.36E2,5.3E2,4.65E2,5.6E1,2.22E2,1E1,1.007E3,5.53E2,8E1,1.88E2,1E1,6E0,1.75E2,1.209E3,7E1,5.04E2,1.44E2,1.92E2,4.66E2,6.4E1,6.5E1,4E2,4E1,1.6E1,5E0,5E0,1.11E2,8.96E2,4.87E2,6.6E1,1.9E1,6.1E1,1.1E1,1.77E2,5E0,5E0,5E0,1E0,1.74E2,1E0,5.49E2,6.6E2,8E0,6.2E1,4.84E2,2E1],"tree_param":{"num_deleted":"0","num_feature":"8","num_nodes":"61","size_leaf_vector":"1"}},{"base_weights":[-1.0773916E1,-2.1010562E2,2.2476813E2,-3.6379205E2,-1.1766559E2,-3.157345E2,3.0244034E2,-4.1826422E2,-3.04619E2,-3.5771045E2,-8.099322E1,-3.9087436E2,-2.971066E2,1.241779E2,4.048873E2,-4.0120047E2,-4.7493964E2,-3.232975E2,-1.5233252E2,-1.973706E1,-1.6863012E1,-1.6838235E2,-1.630157E1,-1.9863829E1,-3.160797E-1,-4.0173126E1,-2.9995865E2,-1.4297047E2,1.5537119E2,3.475141E2,8.274338E2,-1.739479E1,-2.0904911E1,-2.5401588E1,-1.9714188E1,-1.42321825E1,-2.0459171E1,6.7304697E0,-1.0908096E1,9.486365E0,-9.277144E0,-1.9575337E0,7.5665793E0,1.3516449E0,-3.5876386E0,-1.94317E1,-1.4300585E1,-1.1305903E1,3.4276363E1,9.25902E0,-1.4108565E0,1.8211102E1,-3.1863749E1,4.3414757E1,-3.3501534E1],"categories":[],"categories_nodes":[],"categories_segments":[],"categories_sizes":[],"default_left":[0,0,0,0,0,0,0,0,0,0,0,0,0,0,0,0,0,0,0,0,0,0,0,0,0,0,0,0,0,0,0,0,0,0,0,0,0,0,0,0,0,0,0,0,0,0,0,0,0,0,0,0,0,0,0],"id":35,"left_children":[1,3,5,7,9,11,13,15,17,19,21,23,25,27,29,31,33,35,37,-1,-1,39,41,-1,-1,43,45,47,49,51,53,-1,-1,-1,-1,-1,-1,-1,-1,-1,-1,-1,-1,-1,-1,-1,-1,-1,-1,-1,-1,-1,-1,-1,-1],"loss_changes":[2.588411E8,4.237839E7,1.0618408E8,3.48552E6,1.6397232E7,3.28628E5,4.0309456E7,3.70896E5,1.489376E6,5.3554E4,9.155585E6,1.45007E5,1.77574E5,6.755474E6,3.372459E7,2.62192E5,1.43552E5,1.48002E6,1.1816504E6,0E0,0E0,4.269346E6,3.5756778E6,0E0,0E0,1.0451413E4,2.05116E5,6.010225E6,3.967482E6,2.0585328E7,1.0800328E7,0E0,0E0,0E0,0E0,0E0,0E0,0E0,0E0,0E0,0E0,0E0,0E0,0E0,0E0,0E0,0E0,0E0,0E0,0E0,0E0,0E0,0E0,0E0,0E0],"parents":[2147483647,0,0,1,1,2,2,3,3,4,4,5,5,6,6,7,7,8,8,9,9,10,10,11,11,12,12,13,13,14,14,15,15,16,16,17,17,18,18,21,21,22,22,25,25,26,26,27,27,28,28,29,29,30,30],"right_children":[2,4,6,8,10,12,14,16,18,20,22,24,26,28,30,32,34,36,38,-1,-1,40,42,-1,-1,44,46,48,50,52,54,-1,-1,-1,-1,-1,-1,-1,-1,-1,-1,-1,-1,-1,-1,-1,-1,-1,-1,-1,-1,-1,-1,-1,-1],"split_conditions":[1.50205E2,8.49224E1,1E0,5.38614E1,1E0,1.646526E2,1.790686E2,2E0,3E0,1.071622E2,1.098228E2,2.02E1,1.65121E2,6.715E0,3E0,9.1E0,4.64744E1,2E0,5.71272E1,-1.973706E1,-1.6863012E1,5.785E0,3E0,-1.9863829E1,-3.160797E-1,7.67E0,8.93E0,1.774686E2,1.756054E2,2.085E1,2.63591E2,-1.739479E1,-2.0904911E1,-2.5401588E1,-1.9714188E1,-1.42321825E1,-2.0459171E1,6.7304697E0,-1.0908096E1,9.486365E0,-9.277144E0,-1.9575337E0,7.5665793E0,1.3516449E0,-3.5876386E0,-1.94317E1,-1.4300585E1,-1.1305903E1,3.4276363E1,9.25902E0,-1.4108565E0,1.8211102E1,-3.1863749E1,4.3414757E1,-3.3501534E1],"split_indices":[2,2,6,2,6,2,2,6,6,2,2,0,2,0,6,0,2,5,2,0,0,0,6,0,0,0,0,2,2,0,2,0,0,0,0,0,0,0,0,0,0,0,0,0,0,0,0,0,0,0,0,0,0,0,0],"split_type":[0,0,0,0,0,0,0,0,0,0,0,0,0,0,0,0,0,0,0,0,0,0,0,0,0,0,0,0,0,0,0,0,0,0,0,0,0,0,0,0,0,0,0,0,0,0,0,0,0,0,0,0,0,0,0],"sum_hessian":[5.511E3,2.985E3,2.526E3,1.12E3,1.865E3,3.17E2,2.209E3,5.8E2,5.4E2,2.46E2,1.619E3,5.9E1,2.58E2,8.07E2,1.402E3,4.52E2,1.28E2,4.8E2,6E1,8.1E1,1.65E2,6.88E2,9.31E2,5.8E1,1E0,3E0,2.55E2,8.4E1,7.23E2,1.236E3,1.66E2,1.14E2,3.38E2,8.7E1,4.1E1,3.34E2,1.46E2,1.1E1,4.9E1,3.1E1,6.57E2,8.2E2,1.11E2,1E0,2E0,3.1E1,2.24E2,7.7E1,7E0,6.22E2,1.01E2,1.216E3,2E1,1.62E2,4E0],"tree_param":{"num_deleted":"0","num_feature":"8","num_nodes":"55","size_leaf_vector":"1"}},{"base_weights":[-3.083857E0,-2.57102E2,1.7329866E2,-3.7244397E2,-1.9235948E2,-3.1290878E2,2.4413148E2,-2.2352764E1,-3.5413675E2,-3.6311658E2,-1.6843318E2,-3.4740933E2,-2.839943E2,1.3063605E2,5.289133E2,-3.4150195E2,-3.9835223E2,-1.9144207E1,-1.6094442E1,-1.386393E2,-2.954115E2,-1.3467342E0,-3.5081772E2,-3.7472522E2,-2.709721E2,4.243086E2,8.95608E1,4.6035123E2,7.403527E2,-1.7179745E1,4.775307E-1,-1.0629062E1,-2.0560045E1,-8.444321E0,-2.3377368E0,-2.5557415E1,-1.3608797E1,-1.7674757E1,-3.742656E0,-1.9885983E1,-9.925236E0,-5.276499E0,-1.3860788E1,1.0052032E1,2.6338453E1,5.926149E0,-5.3402343E0,2.5565664E1,8.124087E0,